{"learner":{"attributes":{"scikit_learn":"{\"_estimator_type\": \"classifier\"}"},"feature_names":["side","patch","damage_sum","damage_mean","damage_std","toughness_sum","toughness_mean","toughness_std","control_sum","control_mean","control_std","mobility_sum","mobility_mean","mobility_std","utility_sum","utility_mean","utility_std","role_ARTILLERY_count","role_ASSASSIN_count","role_BATTLEMAGE_count","role_BURST_count","role_CATCHER_count","role_DIVER_count","role_ENCHANTER_count","role_FIGHTER_count","role_JUGGERNAUT_count","role_MAGE_count","role_MARKSMAN_count","role_SKIRMISHER_count","role_SPECIALIST_count","role_SUPPORT_count","role_TANK_count","role_VANGUARD_count","role_WARDEN_count"],"feature_types":["int","float","float","float","float","float","float","float","float","float","float","float","float","float","float","float","float","int","int","int","int","int","int","int","int","int","int","int","int","int","int","int","int","int"],"gradient_booster":{"model":{"cats":{"enc":[],"feature_segments":[],"sorted_idx":[]},"gbtree_model_param":{"num_parallel_tree":"1","num_trees":"200"},"iteration_indptr":[0,1,2,3,4,5,6,7,8,9,10,11,12,13,14,15,16,17,18,19,20,21,22,23,24,25,26,27,28,29,30,31,32,33,34,35,36,37,38,39,40,41,42,43,44,45,46,47,48,49,50,51,52,53,54,55,56,57,58,59,60,61,62,63,64,65,66,67,68,69,70,71,72,73,74,75,76,77,78,79,80,81,82,83,84,85,86,87,88,89,90,91,92,93,94,95,96,97,98,99,100,101,102,103,104,105,106,107,108,109,110,111,112,113,114,115,116,117,118,119,120,121,122,123,124,125,126,127,128,129,130,131,132,133,134,135,136,137,138,139,140,141,142,143,144,145,146,147,148,149,150,151,152,153,154,155,156,157,158,159,160,161,162,163,164,165,166,167,168,169,170,171,172,173,174,175,176,177,178,179,180,181,182,183,184,185,186,187,188,189,190,191,192,193,194,195,196,197,198,199,200],"tree_info":[0,0,0,0,0,0,0,0,0,0,0,0,0,0,0,0,0,0,0,0,0,0,0,0,0,0,0,0,0,0,0,0,0,0,0,0,0,0,0,0,0,0,0,0,0,0,0,0,0,0,0,0,0,0,0,0,0,0,0,0,0,0,0,0,0,0,0,0,0,0,0,0,0,0,0,0,0,0,0,0,0,0,0,0,0,0,0,0,0,0,0,0,0,0,0,0,0,0,0,0,0,0,0,0,0,0,0,0,0,0,0,0,0,0,0,0,0,0,0,0,0,0,0,0,0,0,0,0,0,0,0,0,0,0,0,0,0,0,0,0,0,0,0,0,0,0,0,0,0,0,0,0,0,0,0,0,0,0,0,0,0,0,0,0,0,0,0,0,0,0,0,0,0,0,0,0,0,0,0,0,0,0,0,0,0,0,0,0,0,0,0,0,0,0,0,0,0,0,0,0],"trees":[{"base_weights":[8.553294E-3,6.667697E-2,-2.0349915E-1,-3.358238E-2,1.1454742E-1,-2.86189E-1,5.4826297E-2,-2.6252722E-2,2.702888E-3,4.808775E-2,9.880166E-3,-2.612528E-2,-8.298395E-2,1.9329641E-2,-3.9324038E-2],"categories":[],"categories_nodes":[],"categories_segments":[],"categories_sizes":[],"default_left":[0,0,0,0,0,0,0,0,0,0,0,0,0,0,0],"id":0,"left_children":[1,3,5,7,9,11,13,-1,-1,-1,-1,-1,-1,-1,-1],"loss_changes":[2.4491245E1,7.4885125E0,9.14736E0,7.011241E0,6.0421343E0,4.17548E0,6.5595136E0,0E0,0E0,0E0,0E0,0E0,0E0,0E0,0E0],"parents":[2147483647,0,0,1,1,2,2,3,3,4,4,5,5,6,6],"right_children":[2,4,6,8,10,12,14,-1,-1,-1,-1,-1,-1,-1,-1],"split_conditions":[1E0,7E0,1.61E1,1E0,4.8989794E-1,8.944272E-1,1E0,-2.6252722E-2,2.702888E-3,4.808775E-2,9.880166E-3,-2.612528E-2,-8.298395E-2,1.9329641E-2,-3.9324038E-2],"split_indices":[33,14,1,18,16,13,17,0,0,0,0,0,0,0,0],"split_type":[0,0,0,0,0,0,0,0,0,0,0,0,0,0,0],"sum_hessian":[1.9849755E3,1.5584807E3,4.2649475E2,5.0374377E2,1.0547369E3,3.22996E2,1.03498726E2,1.0474871E2,3.989951E2,4.2249477E1,1.0124875E3,3.102462E2,1.2749843E1,7.9499016E1,2.3999704E1],"tree_param":{"num_deleted":"0","num_feature":"34","num_nodes":"15","size_leaf_vector":"1"}},{"base_weights":[1.2562951E-2,1.3120617E-1,-1.05854474E-1,2.980079E-1,2.9490776E-2,-5.3252835E-2,-2.9822084E-1,2.4070436E-2,5.8904488E-2,-1.2018066E-2,9.11659E-3,1.21691255E-2,-1.1607378E-2,-2.5555436E-2,-5.665809E-2],"categories":[],"categories_nodes":[],"categories_segments":[],"categories_sizes":[],"default_left":[0,0,0,0,0,0,0,0,0,0,0,0,0,0,0],"id":1,"left_children":[1,3,5,7,9,11,13,-1,-1,-1,-1,-1,-1,-1,-1],"loss_changes":[2.7962744E1,1.6858452E1,1.0064076E1,6.136982E0,5.7219825E0,8.6246395E0,2.3019238E0,0E0,0E0,0E0,0E0,0E0,0E0,0E0,0E0],"parents":[2147483647,0,0,1,1,2,2,3,3,4,4,5,5,6,6],"right_children":[2,4,6,8,10,12,14,-1,-1,-1,-1,-1,-1,-1,-1],"split_conditions":[1E0,8E0,1E0,9E0,4.8989794E-1,1.605E1,2E0,2.4070436E-2,5.8904488E-2,-1.2018066E-2,9.11659E-3,1.21691255E-2,-1.1607378E-2,-2.5555436E-2,-5.665809E-2],"split_indices":[0,5,33,14,16,1,27,0,0,0,0,0,0,0,0],"split_type":[0,0,0,0,0,0,0,0,0,0,0,0,0,0,0],"sum_hessian":[1.9883239E3,9.9316113E2,9.951628E2,3.7548245E2,6.1767865E2,7.8247546E2,2.1268727E2,3.1524042E2,6.024203E1,1.7997408E2,4.3770456E2,2.064937E2,5.759818E2,1.8519539E2,2.7491879E1],"tree_param":{"num_deleted":"0","num_feature":"34","num_nodes":"15","size_leaf_vector":"1"}},{"base_weights":[-7.4283523E-3,1.0550284E-1,-1.2255293E-1,2.710939E-1,5.0911275E-3,-7.3167354E-2,-3.0663264E-1,1.6318284E-2,4.214031E-2,-1.5265598E-2,7.0954077E-3,-1.2122521E-2,1.5028881E-2,4.021224E-2,-3.3075318E-2],"categories":[],"categories_nodes":[],"categories_segments":[],"categories_sizes":[],"default_left":[0,0,0,0,0,0,0,0,0,0,0,0,0,0,0],"id":2,"left_children":[1,3,5,7,9,11,13,-1,-1,-1,-1,-1,-1,-1,-1],"loss_changes":[2.564523E1,1.6555874E1,8.8571005E0,6.0279293E0,6.461932E0,8.302685E0,3.6598473E0,0E0,0E0,0E0,0E0,0E0,0E0,0E0,0E0],"parents":[2147483647,0,0,1,1,2,2,3,3,4,4,5,5,6,6],"right_children":[2,4,6,8,10,12,14,-1,-1,-1,-1,-1,-1,-1,-1],"split_conditions":[1E0,1.6E0,1E0,7.483315E-1,4.8989794E-1,1.2E1,9E0,1.6318284E-2,4.214031E-2,-1.5265598E-2,7.0954077E-3,-1.2122521E-2,1.5028881E-2,4.021224E-2,-3.3075318E-2],"split_indices":[0,6,33,16,16,8,8,0,0,0,0,0,0,0,0],"split_type":[0,0,0,0,0,0,0,0,0,0,0,0,0,0,0],"sum_hessian":[1.9705402E3,9.947884E2,9.7575183E2,3.7487476E2,6.1991364E2,7.7045013E2,2.053017E2,2.1942744E2,1.554473E2,1.8220355E2,4.3771008E2,6.3445734E2,1.359928E2,6.241153E0,1.9906055E2],"tree_param":{"num_deleted":"0","num_feature":"34","num_nodes":"15","size_leaf_vector":"1"}},{"base_weights":[-5.6387106E-4,1.1503079E-1,-1.1566997E-1,2.729526E-1,2.1444052E-2,-7.024017E-2,-3.8854054E-1,9.210599E-3,3.3051416E-2,-8.917395E-3,1.0198728E-2,-5.402477E-3,-5.2072406E-2,-4.1701876E-2,6.295429E-2],"categories":[],"categories_nodes":[],"categories_segments":[],"categories_sizes":[],"default_left":[0,0,0,0,0,0,0,0,0,0,0,0,0,0,0],"id":3,"left_children":[1,3,5,7,9,11,13,-1,-1,-1,-1,-1,-1,-1,-1],"loss_changes":[2.635453E1,1.4599967E1,1.2275522E1,3.79669E0,5.5473466E0,6.1956725E0,4.362961E0,0E0,0E0,0E0,0E0,0E0,0E0,0E0,0E0],"parents":[2147483647,0,0,1,1,2,2,3,3,4,4,5,5,6,6],"right_children":[2,4,6,8,10,12,14,-1,-1,-1,-1,-1,-1,-1,-1],"split_conditions":[1E0,8E0,3E0,1E0,6.324555E-1,2E0,4E0,9.210599E-3,3.3051416E-2,-8.917395E-3,1.0198728E-2,-5.402477E-3,-5.2072406E-2,-4.1701876E-2,6.295429E-2],"split_indices":[0,5,24,18,13,21,24,0,0,0,0,0,0,0,0],"split_type":[0,0,0,0,0,0,0,0,0,0,0,0,0,0,0],"sum_hessian":[1.9787023E3,9.872563E2,9.91446E2,3.666465E2,6.2060974E2,8.510186E2,1.4042737E2,8.915138E1,2.7749515E2,2.6144046E2,3.5916928E2,8.225311E2,2.8487503E1,1.371805E2,3.2468743E0],"tree_param":{"num_deleted":"0","num_feature":"34","num_nodes":"15","size_leaf_vector":"1"}},{"base_weights":[-8.9663835E-3,8.6687915E-2,-1.0458034E-1,2.1481845E-1,9.624231E-3,-6.97585E-2,-3.102739E-1,3.5342317E-2,1.1270567E-2,-4.6926066E-3,1.8077115E-2,-1.3541572E-2,5.5652657E-3,-3.3902854E-2,6.521931E-2],"categories":[],"categories_nodes":[],"categories_segments":[],"categories_sizes":[],"default_left":[0,0,0,0,0,0,0,0,0,0,0,0,0,0,0],"id":4,"left_children":[1,3,5,7,9,11,13,-1,-1,-1,-1,-1,-1,-1,-1],"loss_changes":[1.813704E1,9.787058E0,7.0815887E0,5.2291813E0,6.0100784E0,7.001769E0,4.1867075E0,0E0,0E0,0E0,0E0,0E0,0E0,0E0,0E0],"parents":[2147483647,0,0,1,1,2,2,3,3,4,4,5,5,6,6],"right_children":[2,4,6,8,10,12,14,-1,-1,-1,-1,-1,-1,-1,-1],"split_conditions":[1E0,8E0,3E0,1E0,1E0,1E0,4E0,3.5342317E-2,1.1270567E-2,-4.6926066E-3,1.8077115E-2,-1.3541572E-2,5.5652657E-3,-3.3902854E-2,6.521931E-2],"split_indices":[0,5,24,23,25,19,24,0,0,0,0,0,0,0,0],"split_type":[0,0,0,0,0,0,0,0,0,0,0,0,0,0,0],"sum_hessian":[1.9810905E3,9.9038293E2,9.9070746E2,3.7128146E2,6.191015E2,8.4841797E2,1.4228946E2,1.5645424E2,2.1482722E2,4.6588858E2,1.5321292E2,5.56822E2,2.9159598E2,1.3879071E2,3.4987597E0],"tree_param":{"num_deleted":"0","num_feature":"34","num_nodes":"15","size_leaf_vector":"1"}},{"base_weights":[-1.2547922E-2,7.4829556E-2,-9.9526785E-2,-5.4185376E-2,1.2574588E-1,-1.2188351E-1,2.440469E-1,-1.8865954E-3,-7.216607E-2,-5.783844E-5,1.7784026E-2,-9.280448E-3,-3.5503864E-2,1.6880706E-2,9.696614E-2],"categories":[],"categories_nodes":[],"categories_segments":[],"categories_sizes":[],"default_left":[0,0,0,0,0,0,0,0,0,0,0,0,0,0,0],"id":5,"left_children":[1,3,5,7,9,11,13,-1,-1,-1,-1,-1,-1,-1,-1],"loss_changes":[1.4982014E1,6.4673142E0,7.61761E0,6.5638347E0,4.642748E0,6.259939E0,3.1494958E0,0E0,0E0,0E0,0E0,0E0,0E0,0E0,0E0],"parents":[2147483647,0,0,1,1,2,2,3,3,4,4,5,5,6,6],"right_children":[2,4,6,8,10,12,14,-1,-1,-1,-1,-1,-1,-1,-1],"split_conditions":[1E0,1.605E1,1.3E1,8.944272E-1,4.8989794E-1,3E0,1E1,-1.8865954E-3,-7.216607E-2,-5.783844E-5,1.7784026E-2,-9.280448E-3,-3.5503864E-2,1.6880706E-2,9.696614E-2],"split_indices":[0,1,8,4,16,31,11,0,0,0,0,0,0,0,0],"split_type":[0,0,0,0,0,0,0,0,0,0,0,0,0,0,0],"sum_hessian":[1.9693392E3,9.8248816E2,9.868511E2,2.7800293E2,7.044852E2,9.271647E2,5.968641E1,2.650083E2,1.2994636E1,2.0598312E2,4.9850208E2,8.255948E2,1.0156989E2,5.5195736E1,4.490672E0],"tree_param":{"num_deleted":"0","num_feature":"34","num_nodes":"15","size_leaf_vector":"1"}},{"base_weights":[2.6453384E-3,4.5753554E-2,-1.5687379E-1,1.1680189E-1,-2.4421249E-2,-2.2448012E-1,5.557364E-2,1.8680876E-2,-7.19865E-3,1.8572908E-2,-1.0001391E-2,-4.937862E-2,-1.8669553E-2,1.8117493E-2,-3.3646617E-2],"categories":[],"categories_nodes":[],"categories_segments":[],"categories_sizes":[],"default_left":[0,0,0,0,0,0,0,0,0,0,0,0,0,0,0],"id":6,"left_children":[1,3,5,7,9,11,13,-1,-1,-1,-1,-1,-1,-1,-1],"loss_changes":[1.3591439E1,7.7604856E0,6.0519257E0,1.0234191E1,1.2466888E1,3.1556873E0,5.0988026E0,0E0,0E0,0E0,0E0,0E0,0E0,0E0,0E0],"parents":[2147483647,0,0,1,1,2,2,3,3,4,4,5,5,6,6],"right_children":[2,4,6,8,10,12,14,-1,-1,-1,-1,-1,-1,-1,-1],"split_conditions":[1E0,1E0,1.61E1,9E0,1.605E1,2E0,1E0,1.8680876E-2,-7.19865E-3,1.8572908E-2,-1.0001391E-2,-4.937862E-2,-1.8669553E-2,1.8117493E-2,-3.3646617E-2],"split_indices":[33,0,1,5,1,24,17,0,0,0,0,0,0,0,0],"split_type":[0,0,0,0,0,0,0,0,0,0,0,0,0,0,0],"sum_hessian":[1.9744373E3,1.5549446E3,4.1949274E2,7.7233307E2,7.826115E2,3.181822E2,1.0131054E2,5.634164E2,2.0891667E2,2.0665266E2,5.7595886E2,3.7664383E1,2.8051782E2,7.7135735E1,2.41748E1],"tree_param":{"num_deleted":"0","num_feature":"34","num_nodes":"15","size_leaf_vector":"1"}},{"base_weights":[1.1465175E-3,3.6351375E-2,-1.2741849E-1,2.0613223E-2,3.3547652E-1,-1.869057E-1,-1.1370225E-3,6.0231533E-2,1.4148083E-3,4.716059E-2,-3.047818E-2,-2.5592322E-2,4.3723504E-3,3.2344852E-3,-6.3143216E-2],"categories":[],"categories_nodes":[],"categories_segments":[],"categories_sizes":[],"default_left":[0,0,0,0,0,0,0,0,0,0,0,0,0,0,0],"id":7,"left_children":[1,3,5,7,9,11,13,-1,-1,-1,-1,-1,-1,-1,-1],"loss_changes":[8.967398E0,7.315077E0,3.1992326E0,5.5523806E0,6.913846E0,4.6195173E0,2.9198258E0,0E0,0E0,0E0,0E0,0E0,0E0,0E0,0E0],"parents":[2147483647,0,0,1,1,2,2,3,3,4,4,5,5,6,6],"right_children":[2,4,6,8,10,12,14,-1,-1,-1,-1,-1,-1,-1,-1],"split_conditions":[1E0,1.3E1,2E0,4E-1,3E0,8E-1,3E0,6.0231533E-2,1.4148083E-3,4.716059E-2,-3.047818E-2,-2.5592322E-2,4.3723504E-3,3.2344852E-3,-6.3143216E-2],"split_indices":[33,8,30,13,30,10,24,0,0,0,0,0,0,0,0],"split_type":[0,0,0,0,0,0,0,0,0,0,0,0,0,0,0],"sum_hessian":[1.9792346E3,1.5543307E3,4.2490393E2,1.4776544E3,7.667631E1,2.8851404E2,1.363899E2,1.5229329E1,1.462425E3,6.344935E1,1.3226954E1,2.2197629E2,6.653774E1,1.3041101E2,5.9788737E0],"tree_param":{"num_deleted":"0","num_feature":"34","num_nodes":"15","size_leaf_vector":"1"}},{"base_weights":[3.0588685E-3,8.149969E-2,-7.608863E-2,1.8799078E-1,1.7346513E-2,-1.1524638E-1,7.6032676E-2,9.590712E-3,3.024084E-2,-8.029202E-3,1.0034049E-2,-1.0328717E-2,-1.1697894E-1,1.836009E-2,-1.2887438E-2],"categories":[],"categories_nodes":[],"categories_segments":[],"categories_sizes":[],"default_left":[0,0,0,0,0,0,0,0,0,0,0,0,0,0,0],"id":8,"left_children":[1,3,5,7,9,11,13,-1,-1,-1,-1,-1,-1,-1,-1],"loss_changes":[1.2275052E1,6.7806544E0,5.8712068E0,3.9031687E0,5.03854E0,9.755175E0,4.4777503E0,0E0,0E0,0E0,0E0,0E0,0E0,0E0,0E0],"parents":[2147483647,0,0,1,1,2,2,3,3,4,4,5,5,6,6],"right_children":[2,4,6,8,10,12,14,-1,-1,-1,-1,-1,-1,-1,-1],"split_conditions":[1E0,8E0,1.2E1,6.324555E-1,1.8E0,2E0,1E0,9.590712E-3,3.024084E-2,-8.029202E-3,1.0034049E-2,-1.0328717E-2,-1.1697894E-1,1.836009E-2,-1.2887438E-2],"split_indices":[0,5,8,16,12,33,33,0,0,0,0,0,0,0,0],"split_type":[0,0,0,0,0,0,0,0,0,0,0,0,0,0,0],"sum_hessian":[1.9751711E3,9.919993E2,9.831719E2,3.7221332E2,6.19786E2,7.820943E2,2.0107753E2,2.0725334E2,1.6495998E2,2.8478375E2,3.3500223E2,7.7441E2,7.684376E0,1.3192567E2,6.9151855E1],"tree_param":{"num_deleted":"0","num_feature":"34","num_nodes":"15","size_leaf_vector":"1"}},{"base_weights":[1.269925E-2,5.073129E-2,-1.24920495E-1,6.751535E-2,-1.5724596E-1,-1.8882048E-1,7.2325796E-2,1.2002844E-2,-1.6712773E-3,-4.290648E-2,2.2192022E-3,-1.3303782E-2,-5.2084398E-2,-1.1282097E-2,2.640144E-2],"categories":[],"categories_nodes":[],"categories_segments":[],"categories_sizes":[],"default_left":[0,0,0,0,0,0,0,0,0,0,0,0,0,0,0],"id":9,"left_children":[1,3,5,7,9,11,13,-1,-1,-1,-1,-1,-1,-1,-1],"loss_changes":[1.0292998E1,5.3881807E0,5.3808265E0,6.3101974E0,5.635197E0,5.8928547E0,3.7534318E0,0E0,0E0,0E0,0E0,0E0,0E0,0E0,0E0],"parents":[2147483647,0,0,1,1,2,2,3,3,4,4,5,5,6,6],"right_children":[2,4,6,8,10,12,14,-1,-1,-1,-1,-1,-1,-1,-1],"split_conditions":[1E0,3E0,1.61E1,3E0,4.8989794E-1,2E0,7.483315E-1,1.2002844E-2,-1.6712773E-3,-4.290648E-2,2.2192022E-3,-1.3303782E-2,-5.2084398E-2,-1.1282097E-2,2.640144E-2],"split_indices":[33,31,1,26,16,27,4,0,0,0,0,0,0,0,0],"split_type":[0,0,0,0,0,0,0,0,0,0,0,0,0,0,0],"sum_hessian":[1.9643688E3,1.5395392E3,4.248295E2,1.425199E3,1.1434022E2,3.2091006E2,1.0391943E2,8.776142E2,5.475848E2,4.4913116E1,6.94271E1,2.7594904E2,4.496101E1,5.3071022E1,5.084841E1],"tree_param":{"num_deleted":"0","num_feature":"34","num_nodes":"15","size_leaf_vector":"1"}},{"base_weights":[-3.8504968E-3,7.380611E-2,-8.14947E-2,4.1307993E-2,2.6832587E-1,2.4610892E-1,-1.01733364E-1,-8.646225E-3,9.133062E-3,1.9745225E-2,9.340828E-2,1.33572845E-2,7.10274E-2,-1.4331855E-2,5.896283E-3],"categories":[],"categories_nodes":[],"categories_segments":[],"categories_sizes":[],"default_left":[0,0,0,0,0,0,0,0,0,0,0,0,0,0,0],"id":10,"left_children":[1,3,5,7,9,11,13,-1,-1,-1,-1,-1,-1,-1,-1],"loss_changes":[1.1811056E1,6.1800475E0,6.5192432E0,5.378948E0,6.4222326E0,2.8972695E0,6.1777954E0,0E0,0E0,0E0,0E0,0E0,0E0,0E0,0E0],"parents":[2147483647,0,0,1,1,2,2,3,3,4,4,5,5,6,6],"right_children":[2,4,6,8,10,12,14,-1,-1,-1,-1,-1,-1,-1,-1],"split_conditions":[1E0,1.611E1,1.602E1,4.8989794E-1,8.944272E-1,2E0,1.2E1,-8.646225E-3,9.133062E-3,1.9745225E-2,9.340828E-2,1.33572845E-2,7.10274E-2,-1.4331855E-2,5.896283E-3],"split_indices":[0,1,1,16,10,27,8,0,0,0,0,0,0,0,0],"split_type":[0,0,0,0,0,0,0,0,0,0,0,0,0,0,0],"sum_hessian":[1.956853E3,9.7837305E2,9.784799E2,8.393556E2,1.3901747E2,5.6281998E1,9.2219794E2,2.359506E2,6.0340497E2,1.2681399E2,1.22034855E1,4.6335743E1,9.946256E0,7.326976E2,1.8950037E2],"tree_param":{"num_deleted":"0","num_feature":"34","num_nodes":"15","size_leaf_vector":"1"}},{"base_weights":[-1.5971372E-2,6.874877E-2,-6.626992E-2,1.5101609E-1,-1.2539416E-2,6.723391E-1,-7.3578306E-2,1.3644139E-2,8.125383E-2,3.3222956E-3,-3.6979523E-2,1.04152076E-1,-1.9396372E-2,-1.2182568E-2,2.9958854E-3],"categories":[],"categories_nodes":[],"categories_segments":[],"categories_sizes":[],"default_left":[0,0,0,0,0,0,0,0,0,0,0,0,0,0,0],"id":11,"left_children":[1,3,5,7,9,11,13,-1,-1,-1,-1,-1,-1,-1,-1],"loss_changes":[8.4097595E0,4.919032E0,6.733117E0,3.41329E0,6.073931E0,4.1134434E0,6.1326623E0,0E0,0E0,0E0,0E0,0E0,0E0,0E0,0E0],"parents":[2147483647,0,0,1,1,2,2,3,3,4,4,5,5,6,6],"right_children":[2,4,6,8,10,12,14,-1,-1,-1,-1,-1,-1,-1,-1],"split_conditions":[8E0,1E0,1E0,9.797959E-1,1.611E1,2E0,1E1,1.3644139E-2,8.125383E-2,3.3222956E-3,-3.6979523E-2,1.04152076E-1,-1.9396372E-2,-1.2182568E-2,2.9958854E-3],"split_indices":[5,0,15,10,1,18,11,0,0,0,0,0,0,0,0],"split_type":[0,0,0,0,0,0,0,0,0,0,0,0,0,0,0],"sum_hessian":[1.9714507E3,7.342884E2,1.2371622E3,3.6451996E2,3.6976843E2,1.1229965E1,1.2259323E3,3.578422E2,6.6777444E0,3.2858554E2,4.1182873E1,7.732458E0,3.497507E0,8.361277E2,3.8980457E2],"tree_param":{"num_deleted":"0","num_feature":"34","num_nodes":"15","size_leaf_vector":"1"}},{"base_weights":[-8.72819E-3,5.1924262E-2,-6.996568E-2,4.5846205E-2,9.3728554E-1,-2.824893E-1,-3.8958225E-2,-2.3743542E-2,6.292619E-3,-2.7429277E-2,1.2620138E-1,-5.5881154E-2,-1.195009E-2,-1.5906448E-3,-3.0227084E-2],"categories":[],"categories_nodes":[],"categories_segments":[],"categories_sizes":[],"default_left":[0,0,0,0,0,0,0,0,0,0,0,0,0,0,0],"id":12,"left_children":[1,3,5,7,9,11,13,-1,-1,-1,-1,-1,-1,-1,-1],"loss_changes":[7.34386E0,5.3030357E0,6.47214E0,4.793989E0,2.9908752E0,5.567543E0,5.213475E0,0E0,0E0,0E0,0E0,0E0,0E0,0E0,0E0],"parents":[2147483647,0,0,1,1,2,2,3,3,4,4,5,5,6,6],"right_children":[2,4,6,8,10,12,14,-1,-1,-1,-1,-1,-1,-1,-1],"split_conditions":[1E0,1.1E1,4.8989794E-1,1.602E1,1E0,1.1E1,9.797959E-1,-2.3743542E-2,6.292619E-3,-2.7429277E-2,1.2620138E-1,-5.5881154E-2,-1.195009E-2,-1.5906448E-3,-3.0227084E-2],"split_indices":[0,14,10,1,19,8,7,0,0,0,0,0,0,0,0],"split_type":[0,0,0,0,0,0,0,0,0,0,0,0,0,0,0],"sum_hessian":[1.9752585E3,9.9244604E2,9.828125E2,9.867239E2,5.722134E0,1.2410339E2,8.587091E2,5.5376156E1,9.313477E2,1.2423134E0,4.4798207E0,4.5142525E1,7.896087E1,7.905597E2,6.814937E1],"tree_param":{"num_deleted":"0","num_feature":"34","num_nodes":"15","size_leaf_vector":"1"}},{"base_weights":[-4.128446E-3,3.797904E-2,-8.791123E-2,1.9022427E-2,3.149315E-1,1.417291E-1,-1.3737786E-1,6.839385E-3,-1.0232421E-2,4.10147E-2,-1.4079194E-2,3.2152634E-2,-6.023546E-2,1.1638991E-2,-1.826358E-2],"categories":[],"categories_nodes":[],"categories_segments":[],"categories_sizes":[],"default_left":[0,0,0,0,0,0,0,0,0,0,0,0,0,0,0],"id":13,"left_children":[1,3,5,7,9,11,13,-1,-1,-1,-1,-1,-1,-1,-1],"loss_changes":[6.9365654E0,6.864404E0,7.489944E0,7.351178E0,3.6926584E0,1.5852681E1,6.2414494E0,0E0,0E0,0E0,0E0,0E0,0E0,0E0,0E0],"parents":[2147483647,0,0,1,1,2,2,3,3,4,4,5,5,6,6],"right_children":[2,4,6,8,10,12,14,-1,-1,-1,-1,-1,-1,-1,-1],"split_conditions":[1E0,1.3E1,1.603E1,9E0,3E0,1.2E1,1E0,6.839385E-3,-1.0232421E-2,4.10147E-2,-1.4079194E-2,3.2152634E-2,-6.023546E-2,1.1638991E-2,-1.826358E-2],"split_indices":[28,8,1,5,30,8,31,0,0,0,0,0,0,0,0],"split_type":[0,0,0,0,0,0,0,0,0,0,0,0,0,0,0],"sum_hessian":[1.9642657E3,1.3076266E3,6.566392E2,1.2248572E3,8.276932E1,1.1604677E2,5.405924E2,8.7094037E2,3.5391684E2,6.8547516E1,1.4221803E1,9.392018E1,2.2126587E1,8.158152E1,4.5901093E2],"tree_param":{"num_deleted":"0","num_feature":"34","num_nodes":"15","size_leaf_vector":"1"}},{"base_weights":[-4.84426E-3,-5.138898E-2,6.841868E-2,2.9796257E-3,-1.4834495E-1,-1.2528466E0,8.218626E-2,1.1295364E-3,-1.1144757E-1,1.1759409E-2,-2.0964852E-2,-3.843398E-2,-1.635748E-1,2.578139E-3,2.0485347E-2],"categories":[],"categories_nodes":[],"categories_segments":[],"categories_sizes":[],"default_left":[0,0,0,0,0,0,0,0,0,0,0,0,0,0,0],"id":14,"left_children":[1,3,5,7,9,11,13,-1,-1,-1,-1,-1,-1,-1,-1],"loss_changes":[6.7282267E0,6.3602934E0,1.404722E1,7.204937E0,7.0919027E0,2.0206861E0,5.250384E0,0E0,0E0,0E0,0E0,0E0,0E0,0E0,0E0],"parents":[2147483647,0,0,1,1,2,2,3,3,4,4,5,5,6,6],"right_children":[2,4,6,8,10,12,14,-1,-1,-1,-1,-1,-1,-1,-1],"split_conditions":[8E0,3E0,8E0,2E0,1E0,1.608E1,1E1,1.1295364E-3,-1.1144757E-1,1.1759409E-2,-2.0964852E-2,-3.843398E-2,-1.635748E-1,2.578139E-3,2.0485347E-2],"split_indices":[14,26,8,21,31,1,11,0,0,0,0,0,0,0,0],"split_type":[0,0,0,0,0,0,0,0,0,0,0,0,0,0,0],"sum_hessian":[1.9710542E3,1.2054913E3,7.655628E2,7.729978E2,4.324936E2,6.966769E0,7.5859607E2,7.6827045E2,4.727327E0,8.084859E1,3.51645E2,2.7447696E0,4.2219996E0,5.2047925E2,2.3811678E2],"tree_param":{"num_deleted":"0","num_feature":"34","num_nodes":"15","size_leaf_vector":"1"}},{"base_weights":[2.6980874E-3,5.400162E-2,-4.8885033E-2,2.3290047E-2,1.8140826E-1,-1.8253654E-2,-2.3544654E-1,5.90642E-3,-1.5157553E-2,-6.9151714E-2,2.4375433E-2,-2.2448108E-2,9.1789814E-4,-6.74952E-2,-1.6516728E-2],"categories":[],"categories_nodes":[],"categories_segments":[],"categories_sizes":[],"default_left":[0,0,0,0,0,0,0,0,0,0,0,0,0,0,0],"id":15,"left_children":[1,3,5,7,9,11,13,-1,-1,-1,-1,-1,-1,-1,-1],"loss_changes":[5.1918354E0,3.8443303E0,5.586259E0,4.973912E0,1.0557587E1,4.762168E0,4.1475854E0,0E0,0E0,0E0,0E0,0E0,0E0,0E0,0E0],"parents":[2147483647,0,0,1,1,2,2,3,3,4,4,5,5,6,6],"right_children":[2,4,6,8,10,12,14,-1,-1,-1,-1,-1,-1,-1,-1],"split_conditions":[1E0,1E0,1.611E1,8E-1,1.602E1,4.8989794E-1,4.8989794E-1,5.90642E-3,-1.5157553E-2,-6.9151714E-2,2.4375433E-2,-2.2448108E-2,9.1789814E-4,-6.74952E-2,-1.6516728E-2],"split_indices":[0,25,1,10,1,10,7,0,0,0,0,0,0,0,0],"split_type":[0,0,0,0,0,0,0,0,0,0,0,0,0,0,0],"sum_hessian":[1.9598535E3,9.8256616E2,9.772874E2,7.926737E2,1.8989246E2,8.404006E2,1.3688683E2,6.585991E2,1.3407455E2,1.1985691E1,1.7790675E2,9.782311E1,7.4257745E2,1.768518E1,1.19201645E2],"tree_param":{"num_deleted":"0","num_feature":"34","num_nodes":"15","size_leaf_vector":"1"}},{"base_weights":[4.345173E-3,6.6199887E-1,-4.1852694E-4,1.204337E0,-2.84003E-1,-4.354425E-2,7.0415474E-2,1.3380294E-1,1.9250464E-2,-1.0797095E-1,1.5294737E-2,-5.436942E-3,3.9049502E-2,1.3712674E-2,-1.1765656E-2],"categories":[],"categories_nodes":[],"categories_segments":[],"categories_sizes":[],"default_left":[0,0,0,0,0,0,0,0,0,0,0,0,0,0,0],"id":16,"left_children":[1,3,5,7,9,11,13,-1,-1,-1,-1,-1,-1,-1,-1],"loss_changes":[6.1983414E0,7.6417956E0,6.006214E0,9.915848E-1,2.249079E0,5.763381E0,9.351522E0,0E0,0E0,0E0,0E0,0E0,0E0,0E0,0E0],"parents":[2147483647,0,0,1,1,2,2,3,3,4,4,5,5,6,6],"right_children":[2,4,6,8,10,12,14,-1,-1,-1,-1,-1,-1,-1,-1],"split_conditions":[5E0,2E0,2E0,1E0,6.324555E-1,1.3E1,1E0,1.3380294E-1,1.9250464E-2,-1.0797095E-1,1.5294737E-2,-5.436942E-3,3.9049502E-2,1.3712674E-2,-1.1765656E-2],"split_indices":[14,18,30,17,7,8,17,0,0,0,0,0,0,0,0],"split_type":[0,0,0,0,0,0,0,0,0,0,0,0,0,0,0],"sum_hessian":[1.9774014E3,1.3228083E1,1.9641733E3,8.234311E0,4.9937706E0,1.2211116E3,7.430617E2,6.9885416E0,1.24577E0,1.2487422E0,3.7450285E0,1.192251E3,2.8860628E1,5.4870184E2,1.9435986E2],"tree_param":{"num_deleted":"0","num_feature":"34","num_nodes":"15","size_leaf_vector":"1"}},{"base_weights":[-3.4253797E-3,-1.949554E-1,7.6608225E-3,-1.6264072E-1,-1.1137142E-1,-3.1952925E-2,6.2359918E-2,-1.7185764E-3,-3.5129435E-2,2.854122E-2,-5.0142314E-3,-9.534697E-2,7.104897E-3],"categories":[],"categories_nodes":[],"categories_segments":[],"categories_sizes":[],"default_left":[0,0,0,0,0,0,0,0,0,0,0,0,0],"id":17,"left_children":[1,3,5,7,-1,9,11,-1,-1,-1,-1,-1,-1],"loss_changes":[4.186043E0,3.02138E0,4.040696E0,2.8854702E0,0E0,6.2583866E0,6.98083E0,0E0,0E0,0E0,0E0,0E0,0E0],"parents":[2147483647,0,0,1,1,2,2,3,3,5,5,6,6],"right_children":[2,4,6,8,-1,10,12,-1,-1,-1,-1,-1,-1],"split_conditions":[7E0,9.797959E-1,1E0,3E0,-1.1137142E-1,1.602E1,8E0,-1.7185764E-3,-3.5129435E-2,2.854122E-2,-5.0142314E-3,-9.534697E-2,7.104897E-3],"split_indices":[11,16,19,26,0,1,8,0,0,0,0,0,0],"split_type":[0,0,0,0,0,0,0,0,0,0,0,0,0],"sum_hessian":[1.9697388E3,1.0686732E2,1.8628715E3,1.04373314E2,2.494006E0,1.0806602E3,7.822113E2,5.9550232E1,4.4823082E1,5.7782944E1,1.02287714E3,5.711844E0,7.7649945E2],"tree_param":{"num_deleted":"0","num_feature":"34","num_nodes":"13","size_leaf_vector":"1"}},{"base_weights":[-6.2760217E-3,1.3286199E-2,-1.7557798E-1,2.1843623E-2,-3.1550306E-1,-3.737737E-1,-5.67594E-2,-2.544254E-3,7.2579086E-3,-3.792332E-2,1.0690575E-1,7.413034E-2,-4.330243E-2,-9.067824E-2,2.3203567E-3],"categories":[],"categories_nodes":[],"categories_segments":[],"categories_sizes":[],"default_left":[0,0,0,0,0,0,0,0,0,0,0,0,0,0,0],"id":18,"left_children":[1,3,5,7,9,11,13,-1,-1,-1,-1,-1,-1,-1,-1],"loss_changes":[6.556055E0,5.000431E0,4.8071933E0,4.1539617E0,4.383703E0,5.386426E0,8.8140335E0,0E0,0E0,0E0,0E0,0E0,0E0,0E0,0E0],"parents":[2147483647,0,0,1,1,2,2,3,3,4,4,5,5,6,6],"right_children":[2,4,6,8,10,12,14,-1,-1,-1,-1,-1,-1,-1,-1],"split_conditions":[3E0,2E0,4.8989794E-1,7.483315E-1,2.8E0,5E0,2E0,-2.544254E-3,7.2579086E-3,-3.792332E-2,1.0690575E-1,7.413034E-2,-4.330243E-2,-9.067824E-2,2.3203567E-3],"split_indices":[31,28,16,10,12,14,24,0,0,0,0,0,0,0,0],"split_type":[0,0,0,0,0,0,0,0,0,0,0,0,0,0,0],"sum_hessian":[1.9778271E3,1.7737933E3,2.0403378E2,1.7297076E3,4.4085674E1,7.566868E1,1.2836511E2,8.9554535E2,8.3416235E2,4.283989E1,1.2457854E0,3.2370543E0,7.243162E1,1.01481495E1,1.18216965E2],"tree_param":{"num_deleted":"0","num_feature":"34","num_nodes":"15","size_leaf_vector":"1"}},{"base_weights":[-6.3397223E-3,-3.8414225E-2,5.1880583E-2,9.425054E-1,-4.515741E-2,5.920342E-2,-1.2337152E-1,1.3222867E-1,2.2730637E-2,1.5918294E-2,-7.1607605E-3,2.7874405E-2,2.768496E-3],"categories":[],"categories_nodes":[],"categories_segments":[],"categories_sizes":[],"default_left":[0,0,0,0,0,0,0,0,0,0,0,0,0],"id":19,"left_children":[1,3,5,7,9,11,-1,-1,-1,-1,-1,-1,-1],"loss_changes":[3.6603014E0,8.401548E0,6.6283364E0,2.0553918E0,6.8001976E0,4.7898355E0,0E0,0E0,0E0,0E0,0E0,0E0,0E0],"parents":[2147483647,0,0,1,1,2,2,3,3,4,4,5,5],"right_children":[2,4,6,8,10,12,-1,-1,-1,-1,-1,-1,-1],"split_conditions":[1E1,5E0,2E0,1E0,7E0,1.603E1,-1.2337152E-1,1.3222867E-1,2.2730637E-2,1.5918294E-2,-7.1607605E-3,2.7874405E-2,2.768496E-3],"split_indices":[11,14,25,29,5,1,0,0,0,0,0,0,0],"split_type":[0,0,0,0,0,0,0,0,0,0,0,0,0],"sum_hessian":[1.9580519E3,1.2627324E3,6.9531946E2,7.6737485E0,1.2550587E3,6.9232983E2,2.9896073E0,4.457769E0,3.2159796E0,1.432633E2,1.1117954E3,8.593175E1,6.0639813E2],"tree_param":{"num_deleted":"0","num_feature":"34","num_nodes":"13","size_leaf_vector":"1"}},{"base_weights":[3.820642E-3,2.9951636E-2,-9.10301E-2,6.6818225E-1,2.6178293E-2,-1.6027689E-1,1.1917371E-1,-1.3610656E-2,9.559375E-2,6.4187795E-3,-3.0558424E-3,-1.9210821E-2,1.8262483E-2,-8.471007E-3,3.363381E-2],"categories":[],"categories_nodes":[],"categories_segments":[],"categories_sizes":[],"default_left":[0,0,0,0,0,0,0,0,0,0,0,0,0,0,0],"id":20,"left_children":[1,3,5,7,9,11,13,-1,-1,-1,-1,-1,-1,-1,-1],"loss_changes":[4.8519073E0,3.6783168E0,6.1737385E0,2.208187E0,3.2942517E0,3.5112762E0,4.692925E0,0E0,0E0,0E0,0E0,0E0,0E0,0E0,0E0],"parents":[2147483647,0,0,1,1,2,2,3,3,4,4,5,5,6,6],"right_children":[2,4,6,8,10,12,14,-1,-1,-1,-1,-1,-1,-1,-1],"split_conditions":[1E0,6E0,1.61E1,2E0,1E0,2E0,7.483315E-1,-1.3610656E-2,9.559375E-2,6.4187795E-3,-3.0558424E-3,-1.9210821E-2,1.8262483E-2,-8.471007E-3,3.363381E-2],"split_indices":[33,11,1,24,23,20,4,0,0,0,0,0,0,0,0],"split_type":[0,0,0,0,0,0,0,0,0,0,0,0,0,0,0],"sum_hessian":[1.9554635E3,1.533637E3,4.2182654E2,7.978968E0,1.525658E3,3.1747818E2,1.0434835E2,2.2413373E0,5.7376313E0,9.135285E2,6.1212946E2,2.9091275E2,2.6565447E1,5.4134422E1,5.0213932E1],"tree_param":{"num_deleted":"0","num_feature":"34","num_nodes":"15","size_leaf_vector":"1"}},{"base_weights":[-1.1244452E-2,5.742625E-1,-1.5359351E-2,9.363179E-1,-1.4602388E-1,1.8776584E-2,-8.2017064E-2,1.0449832E-1,1.2454567E-2,2.8431082E-2,-7.776692E-2,2.5383409E-3,-7.640462E-2,-1.2135672E-2,2.4532413E-2],"categories":[],"categories_nodes":[],"categories_segments":[],"categories_sizes":[],"default_left":[0,0,0,0,0,0,0,0,0,0,0,0,0,0,0],"id":21,"left_children":[1,3,5,7,9,11,13,-1,-1,-1,-1,-1,-1,-1,-1],"loss_changes":[4.7707615E0,3.7406697E0,4.469701E0,6.9301796E-1,1.7128204E0,6.7400565E0,8.596168E0,0E0,0E0,0E0,0E0,0E0,0E0,0E0,0E0],"parents":[2147483647,0,0,1,1,2,2,3,3,4,4,5,5,6,6],"right_children":[2,4,6,8,10,12,14,-1,-1,-1,-1,-1,-1,-1,-1],"split_conditions":[5E0,2E0,3E0,1E0,2E0,2E0,9E0,1.0449832E-1,1.2454567E-2,2.8431082E-2,-7.776692E-2,2.5383409E-3,-7.640462E-2,-1.2135672E-2,2.4532413E-2],"split_indices":[14,18,26,17,26,21,14,0,0,0,0,0,0,0,0],"split_type":[0,0,0,0,0,0,0,0,0,0,0,0,0,0,0],"sum_hessian":[1.9754811E3,1.2819676E1,1.9626614E3,8.331755E0,4.4879217E0,1.298439E3,6.642225E2,7.094753E0,1.2370017E0,2.9963925E0,1.4915291E0,1.2885316E3,9.907302E0,5.935226E2,7.069989E1],"tree_param":{"num_deleted":"0","num_feature":"34","num_nodes":"15","size_leaf_vector":"1"}},{"base_weights":[8.994892E-3,3.2780718E-2,-7.994316E-2,2.7318543E-2,4.296885E-1,-6.16383E-2,-5.316307E-1,6.51154E-2,2.3854584E-3,1.839058E-2,1.0593823E-1,4.660831E-3,-1.1874004E-2,3.709447E-2,-7.2365336E-2],"categories":[],"categories_nodes":[],"categories_segments":[],"categories_sizes":[],"default_left":[0,0,0,0,0,0,0,0,0,0,0,0,0,0,0],"id":22,"left_children":[1,3,5,7,9,11,13,-1,-1,-1,-1,-1,-1,-1,-1],"loss_changes":[4.1820407E0,3.3691807E0,3.4164424E0,3.3109684E0,3.0710921E0,2.4906688E0,3.0616665E0,0E0,0E0,0E0,0E0,0E0,0E0,0E0,0E0],"parents":[2147483647,0,0,1,1,2,2,3,3,4,4,5,5,6,6],"right_children":[2,4,6,8,10,12,14,-1,-1,-1,-1,-1,-1,-1,-1],"split_conditions":[1E0,9.797959E-1,8.944272E-1,6E0,1.1E1,1E0,6.324555E-1,6.51154E-2,2.3854584E-3,1.839058E-2,1.0593823E-1,4.660831E-3,-1.1874004E-2,3.709447E-2,-7.2365336E-2],"split_indices":[33,10,13,11,11,28,10,0,0,0,0,0,0,0,0],"split_type":[0,0,0,0,0,0,0,0,0,0,0,0,0,0,0],"sum_hessian":[1.9746508E3,1.5584786E3,4.161722E2,1.5383766E3,2.0102043E1,4.0105573E2,1.5116514E1,7.4624386E0,1.5309141E3,1.5387883E1,4.714159E0,1.3856488E2,2.6249084E2,2.4883928E0,1.2628121E1],"tree_param":{"num_deleted":"0","num_feature":"34","num_nodes":"15","size_leaf_vector":"1"}},{"base_weights":[1.0980315E-3,7.015411E-2,-4.0326778E-2,1.6714127E-1,-3.2080237E-3,-1.1349532E-1,-6.1000176E-3,1.9043125E-2,-4.0881004E-2,2.2529075E-3,-5.6690652E-2,-4.6547152E-2,-7.2148563E-3,-1.2944429E-2,5.3267474E-3],"categories":[],"categories_nodes":[],"categories_segments":[],"categories_sizes":[],"default_left":[0,0,0,0,0,0,0,0,0,0,0,0,0,0,0],"id":23,"left_children":[1,3,5,7,9,11,13,-1,-1,-1,-1,-1,-1,-1,-1],"loss_changes":[5.6214867E0,5.2431145E0,3.0754018E0,4.334531E0,6.1131067E0,5.6625705E0,6.1425977E0,0E0,0E0,0E0,0E0,0E0,0E0,0E0,0E0],"parents":[2147483647,0,0,1,1,2,2,3,3,4,4,5,5,6,6],"right_children":[2,4,6,8,10,12,14,-1,-1,-1,-1,-1,-1,-1,-1],"split_conditions":[8E0,1E0,8E-1,2E0,1E0,4.8989794E-1,6.324555E-1,1.9043125E-2,-4.0881004E-2,2.2529075E-3,-5.6690652E-2,-4.6547152E-2,-7.2148563E-3,-1.2944429E-2,5.3267474E-3],"split_indices":[5,23,7,17,21,13,4,0,0,0,0,0,0,0,0],"split_type":[0,0,0,0,0,0,0,0,0,0,0,0,0,0,0],"sum_hessian":[1.9631295E3,7.358154E2,1.2273141E3,3.1633362E2,4.194818E2,3.9040552E2,8.3690857E2,3.046824E2,1.1651209E1,4.0208368E2,1.7398127E1,3.9961758E1,3.5044376E2,2.7154837E2,5.6536017E2],"tree_param":{"num_deleted":"0","num_feature":"34","num_nodes":"15","size_leaf_vector":"1"}},{"base_weights":[5.7265325E-3,2.1251604E-2,-1.2854306E-1,6.039467E-2,-5.219703E-2,-3.524312E-1,9.833597E-3,1.1545832E-2,-1.4053619E-3,-4.200128E-2,-2.746309E-3,1.0956624E-2,-5.410582E-2,-7.205356E-2,8.355588E-3],"categories":[],"categories_nodes":[],"categories_segments":[],"categories_sizes":[],"default_left":[0,0,0,0,0,0,0,0,0,0,0,0,0,0,0],"id":24,"left_children":[1,3,5,7,9,11,13,-1,-1,-1,-1,-1,-1,-1,-1],"loss_changes":[4.1162314E0,5.0909605E0,6.344098E0,4.736008E0,5.5904617E0,6.874337E0,6.923178E0,0E0,0E0,0E0,0E0,0E0,0E0,0E0,0E0],"parents":[2147483647,0,0,1,1,2,2,3,3,4,4,5,5,6,6],"right_children":[2,4,6,8,10,12,14,-1,-1,-1,-1,-1,-1,-1,-1],"split_conditions":[3E0,1E0,4.8989794E-1,3E0,2E0,6.324555E-1,2E0,1.1545832E-2,-1.4053619E-3,-4.200128E-2,-2.746309E-3,1.0956624E-2,-5.410582E-2,-7.205356E-2,8.355588E-3],"split_indices":[31,28,16,26,24,10,24,0,0,0,0,0,0,0,0],"split_type":[0,0,0,0,0,0,0,0,0,0,0,0,0,0,0],"sum_hessian":[1.972332E3,1.7686694E3,2.0366266E2,1.1538987E3,6.147708E2,7.7203476E1,1.2645918E2,6.629873E2,4.9091135E2,3.7728798E1,5.77042E2,2.2504103E1,5.4699375E1,1.0789875E1,1.15669304E2],"tree_param":{"num_deleted":"0","num_feature":"34","num_nodes":"15","size_leaf_vector":"1"}},{"base_weights":[3.8602818E-3,5.798413E-2,-5.014944E-2,1.1574755E-1,-1.3106315E-2,-8.34401E-2,7.683904E-2,2.099334E-2,2.6280934E-3,-4.4575434E-2,2.3569735E-3,-7.4147554E-3,-9.0370946E-2,1.1739134E-2,-5.364975E-2],"categories":[],"categories_nodes":[],"categories_segments":[],"categories_sizes":[],"default_left":[0,0,0,0,0,0,0,0,0,0,0,0,0,0,0],"id":25,"left_children":[1,3,5,7,9,11,13,-1,-1,-1,-1,-1,-1,-1,-1],"loss_changes":[5.758519E0,4.041795E0,4.1749325E0,4.5694594E0,7.0234985E0,5.891538E0,5.1698804E0,0E0,0E0,0E0,0E0,0E0,0E0,0E0,0E0],"parents":[2147483647,0,0,1,1,2,2,3,3,4,4,5,5,6,6],"right_children":[2,4,6,8,10,12,14,-1,-1,-1,-1,-1,-1,-1,-1],"split_conditions":[1E0,1E0,1.2E1,1E0,1.602E1,2E0,2E0,2.099334E-2,2.6280934E-3,-4.4575434E-2,2.3569735E-3,-7.4147554E-3,-9.0370946E-2,1.1739134E-2,-5.364975E-2],"split_indices":[0,32,8,23,1,33,21,0,0,0,0,0,0,0,0],"split_type":[0,0,0,0,0,0,0,0,0,0,0,0,0,0,0],"sum_hessian":[1.9679327E3,9.828911E2,9.850416E2,5.419279E2,4.4096317E2,7.80716E2,2.0432564E2,2.6334518E2,2.7858273E2,3.358811E1,4.0737506E2,7.7304877E2,7.6672087E0,1.924124E2,1.1913228E1],"tree_param":{"num_deleted":"0","num_feature":"34","num_nodes":"15","size_leaf_vector":"1"}},{"base_weights":[1.8496998E-2,3.0321732E-2,-1.8715134E-1,7.687164E-2,-1.5515857E-2,1.2422824E-1,-3.323983E-1,1.4012219E-2,2.4845518E-4,-2.7880946E-4,-3.3729207E-2,8.172763E-2,1.4225651E-3,-1.4792736E-2,-7.105496E-2],"categories":[],"categories_nodes":[],"categories_segments":[],"categories_sizes":[],"default_left":[0,0,0,0,0,0,0,0,0,0,0,0,0,0,0],"id":26,"left_children":[1,3,5,7,9,11,13,-1,-1,-1,-1,-1,-1,-1,-1],"loss_changes":[4.750015E0,3.939613E0,4.8454E0,4.309199E0,3.8113108E0,2.6197624E0,4.9667377E0,0E0,0E0,0E0,0E0,0E0,0E0,0E0,0E0],"parents":[2147483647,0,0,1,1,2,2,3,3,4,4,5,5,6,6],"right_children":[2,4,6,8,10,12,14,-1,-1,-1,-1,-1,-1,-1,-1],"split_conditions":[1.0198039E0,1E0,1.605E1,1E0,2E0,7E0,1E0,1.4012219E-2,2.4845518E-4,-2.7880946E-4,-3.3729207E-2,8.172763E-2,1.4225651E-3,-1.4792736E-2,-7.105496E-2],"split_indices":[16,0,1,32,21,5,28,0,0,0,0,0,0,0,0],"split_type":[0,0,0,0,0,0,0,0,0,0,0,0,0,0,0],"sum_hessian":[1.9500089E3,1.8447866E3,1.0522226E2,9.149456E2,9.29841E2,3.351586E1,7.17064E1,4.9401025E2,4.2093536E2,8.9543115E2,3.440985E1,3.710299E0,2.9805563E1,4.9130558E1,2.257584E1],"tree_param":{"num_deleted":"0","num_feature":"34","num_nodes":"15","size_leaf_vector":"1"}},{"base_weights":[-6.948161E-3,5.2273076E-4,-3.141943E-1,-1.9250521E-1,1.2171949E-2,1.2425703E-1,-5.6011194E-1,-3.0400846E-2,3.75462E-3,-4.4251136E-2,1.8754862E-3,-2.2867879E-2,7.703298E-2,3.2390334E-2,-7.05829E-2],"categories":[],"categories_nodes":[],"categories_segments":[],"categories_sizes":[],"default_left":[0,0,0,0,0,0,0,0,0,0,0,0,0,0,0],"id":27,"left_children":[1,3,5,7,9,11,13,-1,-1,-1,-1,-1,-1,-1,-1],"loss_changes":[4.533688E0,4.340298E0,5.125002E0,2.8294282E0,5.456718E0,4.204461E0,4.1214275E0,0E0,0E0,0E0,0E0,0E0,0E0,0E0,0E0],"parents":[2147483647,0,0,1,1,2,2,3,3,4,4,5,5,6,6],"right_children":[2,4,6,8,10,12,14,-1,-1,-1,-1,-1,-1,-1,-1],"split_conditions":[2E0,1.4E0,1E1,7.483315E-1,4E-1,6.324555E-1,6.324555E-1,-3.0400846E-2,3.75462E-3,-4.4251136E-2,1.8754862E-3,-2.2867879E-2,7.703298E-2,3.2390334E-2,-7.05829E-2],"split_indices":[28,12,8,10,10,16,10,0,0,0,0,0,0,0,0],"split_type":[0,0,0,0,0,0,0,0,0,0,0,0,0,0,0],"sum_hessian":[1.9740454E3,1.9281593E3,4.5886166E1,1.0885774E2,1.8193015E3,1.6666271E1,2.9219893E1,7.310373E1,3.575401E1,2.5018904E1,1.7942826E3,1.1196118E1,5.470153E0,3.961854E0,2.5258038E1],"tree_param":{"num_deleted":"0","num_feature":"34","num_nodes":"15","size_leaf_vector":"1"}},{"base_weights":[-9.278691E-3,2.1750597E-2,-7.084356E-2,2.781087E-2,-7.0860755E-1,-1.1212044E-1,2.7142182E-1,1.0743073E-2,-5.25739E-4,-1.7342335E-2,-1.2624867E-1,5.0905923E-4,-2.198093E-2,1.8531919E-2,7.912572E-2],"categories":[],"categories_nodes":[],"categories_segments":[],"categories_sizes":[],"default_left":[0,0,0,0,0,0,0,0,0,0,0,0,0,0,0],"id":28,"left_children":[1,3,5,7,9,11,13,-1,-1,-1,-1,-1,-1,-1,-1],"loss_changes":[3.7707696E0,5.8297367E0,9.375015E0,3.4307308E0,2.9943595E0,7.460445E0,3.0525985E0,0E0,0E0,0E0,0E0,0E0,0E0,0E0,0E0],"parents":[2147483647,0,0,1,1,2,2,3,3,4,4,5,5,6,6],"right_children":[2,4,6,8,10,12,14,-1,-1,-1,-1,-1,-1,-1,-1],"split_conditions":[3E0,2E0,9E0,8E0,6.324555E-1,1.608E1,1.611E1,1.0743073E-2,-5.25739E-4,-1.7342335E-2,-1.2624867E-1,5.0905923E-4,-2.198093E-2,1.8531919E-2,7.912572E-2],"split_indices":[26,21,14,5,7,1,1,0,0,0,0,0,0,0,0],"split_type":[0,0,0,0,0,0,0,0,0,0,0,0,0,0,0],"sum_hessian":[1.9720935E3,1.311654E3,6.604395E2,1.3018138E3,9.840105E0,5.89963E2,7.0476555E1,3.813566E2,9.204573E2,5.6723347E0,4.1677704E0,2.8294827E2,3.070147E2,6.1625706E1,8.850845E0],"tree_param":{"num_deleted":"0","num_feature":"34","num_nodes":"15","size_leaf_vector":"1"}},{"base_weights":[3.1009282E-3,1.6244804E-2,-1.5933797E-1,-5.173923E-3,1.0967747E-1,-1.1605022E-1,-8.161015E-1,3.3030012E-3,-7.242256E-3,9.208785E-3,8.644868E-2,-3.5420276E-2,-4.1441564E-4,-1.1138135E-1,3.9655324E-2],"categories":[],"categories_nodes":[],"categories_segments":[],"categories_sizes":[],"default_left":[0,0,0,0,0,0,0,0,0,0,0,0,0,0,0],"id":29,"left_children":[1,3,5,7,9,11,13,-1,-1,-1,-1,-1,-1,-1,-1],"loss_changes":[4.2002015E0,3.642283E0,4.0920444E0,3.8082075E0,4.4267144E0,3.711665E0,3.669385E0,0E0,0E0,0E0,0E0,0E0,0E0,0E0,0E0],"parents":[2147483647,0,0,1,1,2,2,3,3,4,4,5,5,6,6],"right_children":[2,4,6,8,10,12,14,-1,-1,-1,-1,-1,-1,-1,-1],"split_conditions":[9.797959E-1,1.1E1,1.1E1,3E0,9.797959E-1,7.483315E-1,2E0,3.3030012E-3,-7.242256E-3,9.208785E-3,8.644868E-2,-3.5420276E-2,-4.1441564E-4,-1.1138135E-1,3.9655324E-2],"split_indices":[7,11,11,26,10,4,30,0,0,0,0,0,0,0,0],"split_type":[0,0,0,0,0,0,0,0,0,0,0,0,0,0,0],"sum_hessian":[1.9650242E3,1.8187579E3,1.462663E2,1.4803447E3,3.3841315E2,1.3832585E2,7.9404526E0,9.443618E2,5.359829E2,3.31803E2,6.6101356E0,4.3527584E1,9.479826E1,6.440733E0,1.4997199E0],"tree_param":{"num_deleted":"0","num_feature":"34","num_nodes":"15","size_leaf_vector":"1"}},{"base_weights":[4.7223293E-3,-3.1155173E-2,6.925369E-2,-9.117812E-2,3.2507908E-2,-3.8835016E-1,8.871219E-2,1.45044E-2,-1.2208075E-2,7.81855E-3,-8.593674E-3,6.27478E-2,-4.5701817E-2,9.58864E-3,-1.14654504E-1],"categories":[],"categories_nodes":[],"categories_segments":[],"categories_sizes":[],"default_left":[0,0,0,0,0,0,0,0,0,0,0,0,0,0,0],"id":30,"left_children":[1,3,5,7,9,11,13,-1,-1,-1,-1,-1,-1,-1,-1],"loss_changes":[4.543791E0,4.8231115E0,6.2784166E0,4.75919E0,3.3225572E0,2.294866E0,6.077991E0,0E0,0E0,0E0,0E0,0E0,0E0,0E0,0E0],"parents":[2147483647,0,0,1,1,2,2,3,3,4,4,5,5,6,6],"right_children":[2,4,6,8,10,12,14,-1,-1,-1,-1,-1,-1,-1,-1],"split_conditions":[1E1,2E0,1.1E1,6E0,1E0,1E1,2E0,1.45044E-2,-1.2208075E-2,7.81855E-3,-8.593674E-3,6.27478E-2,-4.5701817E-2,9.58864E-3,-1.14654504E-1],"split_indices":[11,30,2,14,17,2,25,0,0,0,0,0,0,0,0],"split_type":[0,0,0,0,0,0,0,0,0,0,0,0,0,0,0],"sum_hessian":[1.9606389E3,1.2604073E3,7.002315E2,6.485284E2,6.1187897E2,2.7787909E1,6.724436E2,7.459846E1,5.7392993E2,4.4182953E2,1.7004947E2,1.2441996E0,2.6543709E1,6.694777E2,2.9658618E0],"tree_param":{"num_deleted":"0","num_feature":"34","num_nodes":"15","size_leaf_vector":"1"}},{"base_weights":[-9.394089E-3,1.0268757E-2,-8.1286E-2,-2.1202047E-3,1.3668628E-1,-4.7338344E-2,-2.923116E-1,2.247152E-3,-9.971958E-3,3.3713084E-2,3.4930313E-4,2.6208416E-4,-2.8695157E-2,-5.6412764E-2,1.0069017E-2],"categories":[],"categories_nodes":[],"categories_segments":[],"categories_sizes":[],"default_left":[0,0,0,0,0,0,0,0,0,0,0,0,0,0,0],"id":31,"left_children":[1,3,5,7,9,11,13,-1,-1,-1,-1,-1,-1,-1,-1],"loss_changes":[2.7779548E0,2.4177508E0,3.0095522E0,3.3786485E0,3.6772907E0,4.367065E0,6.2837114E0,0E0,0E0,0E0,0E0,0E0,0E0,0E0,0E0],"parents":[2147483647,0,0,1,1,2,2,3,3,4,4,5,5,6,6],"right_children":[2,4,6,8,10,12,14,-1,-1,-1,-1,-1,-1,-1,-1],"split_conditions":[1E0,2E0,2E0,1.8E0,2E0,3E0,1E0,2.247152E-3,-9.971958E-3,3.3713084E-2,3.4930313E-4,2.6208416E-4,-2.8695157E-2,-5.6412764E-2,1.0069017E-2],"split_indices":[33,6,27,6,26,24,17,0,0,0,0,0,0,0,0],"split_type":[0,0,0,0,0,0,0,0,0,0,0,0,0,0,0],"sum_hessian":[1.9635735E3,1.5425377E3,4.2103568E2,1.4057563E3,1.367814E2,3.6374448E2,5.72912E1,1.123454E3,2.8230243E2,5.3993946E1,8.278745E1,3.01807E2,6.1937473E1,3.3609837E1,2.3681362E1],"tree_param":{"num_deleted":"0","num_feature":"34","num_nodes":"15","size_leaf_vector":"1"}},{"base_weights":[8.616266E-4,-3.1817093E-1,5.329077E-3,-7.950031E-3,-9.761736E-1,-2.2444606E-2,4.938149E-2,-1.816967E-2,1.2450222E-1,-1.1373239E-2,-1.5273489E-1,-1.630105E-3,-5.274892E-2,-3.3167992E-3,1.2355601E-2],"categories":[],"categories_nodes":[],"categories_segments":[],"categories_sizes":[],"default_left":[0,0,0,0,0,0,0,0,0,0,0,0,0,0,0],"id":32,"left_children":[1,3,5,7,9,11,13,-1,-1,-1,-1,-1,-1,-1,-1],"loss_changes":[2.7907069E0,5.511799E0,2.363439E0,4.446216E0,3.94071E0,3.667835E0,4.5775023E0,0E0,0E0,0E0,0E0,0E0,0E0,0E0,0E0],"parents":[2147483647,0,0,1,1,2,2,3,3,4,4,5,5,6,6],"right_children":[2,4,6,8,10,12,14,-1,-1,-1,-1,-1,-1,-1,-1],"split_conditions":[8E0,8E0,8E0,1.611E1,1.1E1,9.797959E-1,1E0,-1.816967E-2,1.2450222E-1,-1.1373239E-2,-1.5273489E-1,-1.630105E-3,-5.274892E-2,-3.3167992E-3,1.2355601E-2],"split_indices":[8,14,14,1,11,4,20,0,0,0,0,0,0,0,0],"split_type":[0,0,0,0,0,0,0,0,0,0,0,0,0,0,0],"sum_hessian":[1.955841E3,2.6039936E1,1.929801E3,1.8384493E1,7.655442E0,1.1838873E3,7.4591376E2,1.6896486E1,1.4880078E0,3.45525E0,4.200192E0,1.170679E3,1.3208317E1,3.532886E2,3.9262518E2],"tree_param":{"num_deleted":"0","num_feature":"34","num_nodes":"15","size_leaf_vector":"1"}},{"base_weights":[1.0731576E-3,-3.4518406E-2,4.7720227E-2,-6.1671842E-2,1.3646044E-1,4.037842E-2,8.2708967E-1,-5.903953E-4,-1.5442344E-2,1.8727899E-2,-3.6779564E-2,2.0373322E-3,2.1900546E-2,1.2600456E-1,8.313085E-3],"categories":[],"categories_nodes":[],"categories_segments":[],"categories_sizes":[],"default_left":[0,0,0,0,0,0,0,0,0,0,0,0,0,0,0],"id":33,"left_children":[1,3,5,7,9,11,13,-1,-1,-1,-1,-1,-1,-1,-1],"loss_changes":[3.2694094E0,5.194269E0,4.8431277E0,4.988578E0,3.999657E0,3.016328E0,2.4405131E0,0E0,0E0,0E0,0E0,0E0,0E0,0E0,0E0],"parents":[2147483647,0,0,1,1,2,2,3,3,4,4,5,5,6,6],"right_children":[2,4,6,8,10,12,14,-1,-1,-1,-1,-1,-1,-1,-1],"split_conditions":[1E0,1E1,1.1E1,1E0,1.613E1,1.1E1,1E0,-5.903953E-4,-1.5442344E-2,1.8727899E-2,-3.6779564E-2,2.0373322E-3,2.1900546E-2,1.2600456E-1,8.313085E-3],"split_indices":[19,5,14,28,1,11,0,0,0,0,0,0,0,0,0],"split_type":[0,0,0,0,0,0,0,0,0,0,0,0,0,0,0],"sum_hessian":[1.9672441E3,1.1159999E3,8.5124426E2,9.636071E2,1.5239275E2,8.443422E2,6.9020524E0,6.024446E2,3.6116254E2,1.3901184E2,1.3380907E1,7.603067E2,8.4035515E1,3.9244606E0,2.9775918E0],"tree_param":{"num_deleted":"0","num_feature":"34","num_nodes":"15","size_leaf_vector":"1"}},{"base_weights":[1.1171093E-2,1.787773E-2,-2.6785064E-1,3.1917106E-2,-1.0167611E-1,-3.6304095E-1,3.774304E-1,6.091801E-3,-2.6296114E-3,-1.5810272E-2,5.0108027E-2,-4.262371E-2,5.048765E-2,8.455866E-2,-2.6898628E-2],"categories":[],"categories_nodes":[],"categories_segments":[],"categories_sizes":[],"default_left":[0,0,0,0,0,0,0,0,0,0,0,0,0,0,0],"id":34,"left_children":[1,3,5,7,9,11,13,-1,-1,-1,-1,-1,-1,-1,-1],"loss_changes":[3.6833389E0,3.2268517E0,2.9750426E0,2.9045224E0,6.9520226E0,2.451583E0,2.1732926E0,0E0,0E0,0E0,0E0,0E0,0E0,0E0,0E0],"parents":[2147483647,0,0,1,1,2,2,3,3,4,4,5,5,6,6],"right_children":[2,4,6,8,10,12,14,-1,-1,-1,-1,-1,-1,-1,-1],"split_conditions":[2E0,3E0,9E0,1E0,8.944272E-1,9.797959E-1,1.2E1,6.091801E-3,-2.6296114E-3,-1.5810272E-2,5.0108027E-2,-4.262371E-2,5.048765E-2,8.455866E-2,-2.6898628E-2],"split_indices":[28,31,14,28,10,10,2,0,0,0,0,0,0,0,0],"split_type":[0,0,0,0,0,0,0,0,0,0,0,0,0,0,0],"sum_hessian":[1.9647755E3,1.9195721E3,4.520338E1,1.7184993E3,2.0107281E2,3.9773483E1,5.4298983E0,1.1470238E3,5.7147546E2,1.8453537E2,1.6537447E1,3.754835E1,2.225131E0,2.9704714E0,2.4594266E0],"tree_param":{"num_deleted":"0","num_feature":"34","num_nodes":"15","size_leaf_vector":"1"}},{"base_weights":[4.3361746E-3,1.4463308E-2,-1.6927989E-1,6.913942E-2,-1.735342E-2,1.4228156E-1,-3.1340417E-1,-5.379302E-2,7.75053E-3,-6.9868786E-4,-3.391809E-2,2.7945844E-2,-5.7353616E-2,-4.3425646E-2,1.3285199E-2],"categories":[],"categories_nodes":[],"categories_segments":[],"categories_sizes":[],"default_left":[0,0,0,0,0,0,0,0,0,0,0,0,0,0,0],"id":35,"left_children":[1,3,5,7,9,11,13,-1,-1,-1,-1,-1,-1,-1,-1],"loss_changes":[3.4517841E0,3.2275136E0,4.903416E0,3.5075157E0,3.911658E0,3.5883245E0,4.064482E0,0E0,0E0,0E0,0E0,0E0,0E0,0E0,0E0],"parents":[2147483647,0,0,1,1,2,2,3,3,4,4,5,5,6,6],"right_children":[2,4,6,8,10,12,14,-1,-1,-1,-1,-1,-1,-1,-1],"split_conditions":[1.0198039E0,8E0,1.605E1,1.1E1,3E0,8.944272E-1,1E0,-5.379302E-2,7.75053E-3,-6.9868786E-4,-3.391809E-2,2.7945844E-2,-5.7353616E-2,-4.3425646E-2,1.3285199E-2],"split_indices":[16,5,1,2,30,7,25,0,0,0,0,0,0,0,0],"split_type":[0,0,0,0,0,0,0,0,0,0,0,0,0,0,0],"sum_hessian":[1.9608195E3,1.8536138E3,1.0720575E2,6.814275E2,1.1721863E3,3.3911076E1,7.329467E1,8.402463E0,6.73025E2,1.1365966E3,3.5589752E1,2.8969126E1,4.941949E0,5.769655E1,1.5598125E1],"tree_param":{"num_deleted":"0","num_feature":"34","num_nodes":"15","size_leaf_vector":"1"}},{"base_weights":[-8.0315415E-3,3.1188576E-2,-4.721979E-2,-2.8395206E-3,1.7056775E-1,1.17778E-1,-8.162282E-2,-1.1518911E-2,4.0075853E-3,-9.265715E-3,2.4980744E-2,-1.3223489E-2,2.7969504E-2,-1.8795185E-2,-3.710346E-3],"categories":[],"categories_nodes":[],"categories_segments":[],"categories_sizes":[],"default_left":[0,0,0,0,0,0,0,0,0,0,0,0,0,0,0],"id":36,"left_children":[1,3,5,7,9,11,13,-1,-1,-1,-1,-1,-1,-1,-1],"loss_changes":[3.016532E0,4.6534176E0,5.581835E0,3.8113072E0,4.038911E0,6.9096737E0,3.8409028E0,0E0,0E0,0E0,0E0,0E0,0E0,0E0,0E0],"parents":[2147483647,0,0,1,1,2,2,3,3,4,4,5,5,6,6],"right_children":[2,4,6,8,10,12,14,-1,-1,-1,-1,-1,-1,-1,-1],"split_conditions":[1E0,1E0,2E0,1E0,1.604E1,7.483315E-1,7E0,-1.1518911E-2,4.0075853E-3,-9.265715E-3,2.4980744E-2,-1.3223489E-2,2.7969504E-2,-1.8795185E-2,-3.710346E-3],"split_indices":[0,25,26,18,1,10,14,0,0,0,0,0,0,0,0],"split_type":[0,0,0,0,0,0,0,0,0,0,0,0,0,0,0],"sum_hessian":[1.9606932E3,9.8005023E2,9.8064307E2,7.8852014E2,1.9153004E2,1.6877419E2,8.1186884E2,2.1748218E2,5.7103796E2,4.427717E1,1.4725288E2,6.641202E1,1.0236217E2,2.3865317E2,5.732157E2],"tree_param":{"num_deleted":"0","num_feature":"34","num_nodes":"15","size_leaf_vector":"1"}},{"base_weights":[-5.247631E-3,-9.471378E-3,3.92021E-1,-4.3744177E-2,3.5595514E-2,5.901754E-1,-6.6204315E-1,-1.3505953E-2,-1.808742E-4,2.9055884E-3,7.470922E-2,7.836153E-2,-2.8081894E-2,2.2813661E-2,-1.1936724E-1],"categories":[],"categories_nodes":[],"categories_segments":[],"categories_sizes":[],"default_left":[0,0,0,0,0,0,0,0,0,0,0,0,0,0,0],"id":37,"left_children":[1,3,5,7,9,11,13,-1,-1,-1,-1,-1,-1,-1,-1],"loss_changes":[3.289762E0,2.99606E0,4.6987677E0,4.2185335E0,3.8776093E0,3.2343478E0,2.0399761E0,0E0,0E0,0E0,0E0,0E0,0E0,0E0,0E0],"parents":[2147483647,0,0,1,1,2,2,3,3,4,4,5,5,6,6],"right_children":[2,4,6,8,10,12,14,-1,-1,-1,-1,-1,-1,-1,-1],"split_conditions":[1.4E1,1E0,1.3E1,4.8989794E-1,1.1E1,1E0,1E0,-1.3505953E-2,-1.808742E-4,2.9055884E-3,7.470922E-2,7.836153E-2,-2.8081894E-2,2.2813661E-2,-1.1936724E-1],"split_indices":[8,19,2,16,14,25,22,0,0,0,0,0,0,0,0],"split_type":[0,0,0,0,0,0,0,0,0,0,0,0,0,0,0],"sum_hessian":[1.9573568E3,1.9377311E3,1.9625738E1,1.1006956E3,8.3703564E2,1.6890562E1,2.7351758E0,3.4570166E2,7.5499384E2,8.3044354E2,6.5920773E0,1.3903125E1,2.9874375E0,1.2361661E0,1.4990097E0],"tree_param":{"num_deleted":"0","num_feature":"34","num_nodes":"15","size_leaf_vector":"1"}},{"base_weights":[-1.3844537E-3,-3.3986952E-2,4.1372266E-2,-8.228319E-2,6.876481E-2,-7.4840474E-1,4.776537E-2,-6.7434297E-3,-4.3581646E-2,1.3449191E-2,-1.3338603E-2,2.3750134E-2,-1.00792386E-1,4.124234E-3,6.8448834E-2],"categories":[],"categories_nodes":[],"categories_segments":[],"categories_sizes":[],"default_left":[0,0,0,0,0,0,0,0,0,0,0,0,0,0,0],"id":38,"left_children":[1,3,5,7,9,11,13,-1,-1,-1,-1,-1,-1,-1,-1],"loss_changes":[2.7493825E0,5.558835E0,4.3441687E0,3.9691114E0,4.779156E0,2.0078568E0,3.491281E0,0E0,0E0,0E0,0E0,0E0,0E0,0E0,0E0],"parents":[2147483647,0,0,1,1,2,2,3,3,4,4,5,5,6,6],"right_children":[2,4,6,8,10,12,14,-1,-1,-1,-1,-1,-1,-1,-1],"split_conditions":[1E0,1E0,8E0,3E0,1E0,1.604E1,1.1E1,-6.7434297E-3,-4.3581646E-2,1.3449191E-2,-1.3338603E-2,2.3750134E-2,-1.00792386E-1,4.124234E-3,6.8448834E-2],"split_indices":[19,21,8,30,17,1,14,0,0,0,0,0,0,0,0],"split_type":[0,0,0,0,0,0,0,0,0,0,0,0,0,0,0],"sum_hessian":[1.9703229E3,1.1180227E3,8.5230023E2,7.606805E2,3.573422E2,5.911843E0,8.4638837E2,7.3116144E2,2.951906E1,2.6991653E2,8.742567E1,1.2495762E0,4.6622667E0,8.388593E2,7.529082E0],"tree_param":{"num_deleted":"0","num_feature":"34","num_nodes":"15","size_leaf_vector":"1"}},{"base_weights":[8.263857E-3,5.7310183E-3,7.198195E-1,-6.6206115E-3,1.0320185E-1,1.0464612E0,-1.7032461E-2,-2.7281402E-3,7.2917156E-3,-8.788565E-3,2.5161782E-2,4.2090114E-2,1.3731723E-1],"categories":[],"categories_nodes":[],"categories_segments":[],"categories_sizes":[],"default_left":[0,0,0,0,0,0,0,0,0,0,0,0,0],"id":39,"left_children":[1,3,5,7,9,11,-1,-1,-1,-1,-1,-1,-1],"loss_changes":[3.5346563E0,2.3574514E0,2.2009032E0,2.8586361E0,6.267837E0,4.9072933E-1,0E0,0E0,0E0,0E0,0E0,0E0,0E0],"parents":[2147483647,0,0,1,1,2,2,3,3,4,4,5,5],"right_children":[2,4,6,8,10,12,-1,-1,-1,-1,-1,-1,-1],"split_conditions":[4E0,2E0,1.2E1,1.2E1,6.324555E-1,9E0,-1.7032461E-2,-2.7281402E-3,7.2917156E-3,-8.788565E-3,2.5161782E-2,4.2090114E-2,1.3731723E-1],"split_indices":[24,20,11,8,10,5,0,0,0,0,0,0,0],"split_type":[0,0,0,0,0,0,0,0,0,0,0,0,0],"sum_hessian":[1.9625292E3,1.9565726E3,5.956521E0,1.737346E3,2.1922664E2,4.229048E0,1.7274735E0,1.3796294E3,3.5771655E2,9.601452E1,1.2321212E2,2.2360113E0,1.9930363E0],"tree_param":{"num_deleted":"0","num_feature":"34","num_nodes":"13","size_leaf_vector":"1"}},{"base_weights":[3.269765E-5,2.3608314E-2,-8.572308E-2,-2.5049295E-2,8.372924E-2,-1.8555138E-1,1.4497697E-2,-8.356939E-3,9.569439E-3,1.5700383E-2,1.0834301E-3,4.8103E-2,-2.2413742E-2,2.6736656E-2,-7.5741806E-3],"categories":[],"categories_nodes":[],"categories_segments":[],"categories_sizes":[],"default_left":[0,0,0,0,0,0,0,0,0,0,0,0,0,0,0],"id":40,"left_children":[1,3,5,7,9,11,13,-1,-1,-1,-1,-1,-1,-1,-1],"loss_changes":[3.9764655E0,4.5150976E0,4.2459574E0,6.038212E0,3.685461E0,5.5747223E0,4.8708706E0,0E0,0E0,0E0,0E0,0E0,0E0,0E0,0E0],"parents":[2147483647,0,0,1,1,2,2,3,3,4,4,5,5,6,6],"right_children":[2,4,6,8,10,12,14,-1,-1,-1,-1,-1,-1,-1,-1],"split_conditions":[1E0,6.324555E-1,1.1E1,2E0,1E0,1.602E1,8E0,-8.356939E-3,9.569439E-3,1.5700383E-2,1.0834301E-3,4.8103E-2,-2.2413742E-2,2.6736656E-2,-7.5741806E-3],"split_indices":[17,16,8,30,0,1,5,0,0,0,0,0,0,0,0],"split_type":[0,0,0,0,0,0,0,0,0,0,0,0,0,0,0],"sum_hessian":[1.9648468E3,1.5417266E3,4.2312024E2,8.524209E2,6.8930566E2,2.1154863E2,2.115716E2,5.7435815E2,2.7806274E2,3.431822E2,3.4612344E2,1.094829E1,2.0060034E2,5.5128323E1,1.5644327E2],"tree_param":{"num_deleted":"0","num_feature":"34","num_nodes":"15","size_leaf_vector":"1"}},{"base_weights":[-3.4020983E-3,3.822859E-1,-7.570613E-3,6.039032E-1,-2.1098383E-1,-9.170019E-3,8.8836604E-1,2.3841014E-2,9.716996E-2,-1.2051999E-1,3.3087984E-2,-3.397094E-4,-2.4182247E-2,1.126832E-1,2.5627295E-2],"categories":[],"categories_nodes":[],"categories_segments":[],"categories_sizes":[],"default_left":[0,0,0,0,0,0,0,0,0,0,0,0,0,0,0],"id":41,"left_children":[1,3,5,7,9,11,13,-1,-1,-1,-1,-1,-1,-1,-1],"loss_changes":[3.1606007E0,2.8910956E0,2.7938871E0,1.8603282E0,3.877728E0,2.606864E0,2.349422E-1,0E0,0E0,0E0,0E0,0E0,0E0,0E0,0E0],"parents":[2147483647,0,0,1,1,2,2,3,3,4,4,5,5,6,6],"right_children":[2,4,6,8,10,12,14,-1,-1,-1,-1,-1,-1,-1,-1],"split_conditions":[4E-1,3E0,4E0,1E0,6.324555E-1,2E0,2E0,2.3841014E-2,9.716996E-2,-1.2051999E-1,3.3087984E-2,-3.397094E-4,-2.4182247E-2,1.126832E-1,2.5627295E-2],"split_indices":[13,24,31,20,16,28,32,0,0,0,0,0,0,0,0],"split_type":[0,0,0,0,0,0,0,0,0,0,0,0,0,0,0],"sum_hessian":[1.963058E3,2.0019978E1,1.9430381E3,1.4562281E1,5.457697E0,1.9405636E3,2.4744852E0,8.130707E0,6.431574E0,1.4934065E0,3.9642901E0,1.8945673E3,4.599627E1,1.228367E0,1.2461182E0],"tree_param":{"num_deleted":"0","num_feature":"34","num_nodes":"15","size_leaf_vector":"1"}},{"base_weights":[9.480951E-3,1.1496572E-1,-3.401776E-3,4.5794627E-1,-3.426608E-2,3.2596815E-2,-7.881678E-2,5.799095E-2,-5.689993E-2,2.0839898E-2,-2.0941209E-2,-1.7158084E-2,4.9908743E-3,2.661258E-2,-1.1128628E-2],"categories":[],"categories_nodes":[],"categories_segments":[],"categories_sizes":[],"default_left":[0,0,0,0,0,0,0,0,0,0,0,0,0,0,0],"id":42,"left_children":[1,3,5,7,9,11,13,-1,-1,-1,-1,-1,-1,-1,-1],"loss_changes":[2.687035E0,1.1030497E1,4.788346E0,8.510741E0,6.456572E0,4.228828E0,6.4122787E0,0E0,0E0,0E0,0E0,0E0,0E0,0E0,0E0],"parents":[2147483647,0,0,1,1,2,2,3,3,4,4,5,5,6,6],"right_children":[2,4,6,8,10,12,14,-1,-1,-1,-1,-1,-1,-1,-1],"split_conditions":[1E0,6.324555E-1,1E0,1.0198039E0,1.608E1,4.8989794E-1,1.602E1,5.799095E-2,-5.689993E-2,2.0839898E-2,-2.0941209E-2,-1.7158084E-2,4.9908743E-3,2.661258E-2,-1.1128628E-2],"split_indices":[31,10,28,16,1,4,1,0,0,0,0,0,0,0,0],"split_type":[0,0,0,0,0,0,0,0,0,0,0,0,0,0,0],"sum_hessian":[1.9760267E3,2.142018E2,1.761825E3,6.431575E1,1.4988605E2,1.1929501E3,5.688749E2,5.787736E1,6.4383893E0,6.27525E1,8.713355E1,9.254609E1,1.1004039E3,4.8322315E1,5.2055255E2],"tree_param":{"num_deleted":"0","num_feature":"34","num_nodes":"15","size_leaf_vector":"1"}},{"base_weights":[-5.575374E-3,8.5673176E-2,-3.3648E-2,1.0608957E-1,-6.5067506E-1,6.5475273E-1,-3.765151E-2,3.9290156E-2,6.6371113E-3,-1.2126799E-1,-3.071E-2,9.689868E-2,-1.844128E-2,4.2758327E-2,-4.2505013E-3],"categories":[],"categories_nodes":[],"categories_segments":[],"categories_sizes":[],"default_left":[0,0,0,0,0,0,0,0,0,0,0,0,0,0,0],"id":43,"left_children":[1,3,5,7,9,11,13,-1,-1,-1,-1,-1,-1,-1,-1],"loss_changes":[5.030029E0,7.0145626E0,4.1628485E0,5.1047235E0,2.0613618E0,2.4823763E0,3.3911467E0,0E0,0E0,0E0,0E0,0E0,0E0,0E0,0E0],"parents":[2147483647,0,0,1,1,2,2,3,3,4,4,5,5,6,6],"right_children":[2,4,6,8,10,12,14,-1,-1,-1,-1,-1,-1,-1,-1],"split_conditions":[1E1,2E0,5E0,1.603E1,1E0,1E1,6E0,3.9290156E-2,6.6371113E-3,-1.2126799E-1,-3.071E-2,9.689868E-2,-1.844128E-2,4.2758327E-2,-4.2505013E-3],"split_indices":[8,19,14,1,31,11,5,0,0,0,0,0,0,0,0],"split_type":[0,0,0,0,0,0,0,0,0,0,0,0,0,0,0],"sum_hessian":[1.961513E3,4.610013E2,1.5005117E3,4.49397E2,1.1604305E1,7.7361836E0,1.4927755E3,5.358206E1,3.9581494E2,3.4429264E0,8.161378E0,5.5159698E0,2.220214E0,1.45131445E1,1.4782623E3],"tree_param":{"num_deleted":"0","num_feature":"34","num_nodes":"15","size_leaf_vector":"1"}},{"base_weights":[-4.618814E-3,-1.1248128E-5,-3.5913074E-1,3.644623E-3,-4.1852656E-1,-9.63258E-1,-1.9105968E-1,3.1482116E-3,-5.072653E-3,-8.008862E-3,-8.6653076E-2,-1.2069111E-1,-9.325731E-3,-3.3393852E-2,4.5758676E-2],"categories":[],"categories_nodes":[],"categories_segments":[],"categories_sizes":[],"default_left":[0,0,0,0,0,0,0,0,0,0,0,0,0,0,0],"id":44,"left_children":[1,3,5,7,9,11,13,-1,-1,-1,-1,-1,-1,-1,-1],"loss_changes":[3.2067084E0,2.9682398E0,2.3734334E0,2.9124405E0,2.4777834E0,9.9710274E-1,2.094685E0,0E0,0E0,0E0,0E0,0E0,0E0,0E0,0E0],"parents":[2147483647,0,0,1,1,2,2,3,3,4,4,5,5,6,6],"right_children":[2,4,6,8,10,12,14,-1,-1,-1,-1,-1,-1,-1,-1],"split_conditions":[2E0,2E0,2E0,3E0,8E0,1.2E1,2E0,3.1482116E-3,-5.072653E-3,-8.008862E-3,-8.6653076E-2,-1.2069111E-1,-9.325731E-3,-3.3393852E-2,4.5758676E-2],"split_indices":[33,29,24,26,5,8,30,0,0,0,0,0,0,0,0],"split_type":[0,0,0,0,0,0,0,0,0,0,0,0,0,0,0],"sum_hessian":[1.9621686E3,1.9379808E3,2.4187769E1,1.9221813E3,1.5799604E1,4.2347627E0,1.9953005E1,1.2715707E3,6.506106E2,9.67189E0,6.127715E0,3.0057244E0,1.2290384E0,1.674887E1,3.2041354E0],"tree_param":{"num_deleted":"0","num_feature":"34","num_nodes":"15","size_leaf_vector":"1"}},{"base_weights":[1.1855229E-2,2.2688635E-2,-1.24086544E-1,1.4080023E-2,2.2988749E-1,-7.928931E-2,-8.2748395E-1,3.2292396E-2,6.120126E-4,1.1680758E-3,4.471052E-2,-6.6699825E-2,-2.2393076E-3,-1.1239251E-1,3.4808654E-2],"categories":[],"categories_nodes":[],"categories_segments":[],"categories_sizes":[],"default_left":[0,0,0,0,0,0,0,0,0,0,0,0,0,0,0],"id":45,"left_children":[1,3,5,7,9,11,13,-1,-1,-1,-1,-1,-1,-1,-1],"loss_changes":[2.9026577E0,3.2512193E0,4.5187893E0,4.307152E0,3.4414387E0,4.5956917E0,3.3899608E0,0E0,0E0,0E0,0E0,0E0,0E0,0E0,0E0],"parents":[2147483647,0,0,1,1,2,2,3,3,4,4,5,5,6,6],"right_children":[2,4,6,8,10,12,14,-1,-1,-1,-1,-1,-1,-1,-1],"split_conditions":[9.797959E-1,2E0,1.1E1,1E0,1E0,1.602E1,2E0,3.2292396E-2,6.120126E-4,1.1680758E-3,4.471052E-2,-6.6699825E-2,-2.2393076E-3,-1.1239251E-1,3.4808654E-2],"split_indices":[7,32,11,27,0,1,30,0,0,0,0,0,0,0,0],"split_type":[0,0,0,0,0,0,0,0,0,0,0,0,0,0,0],"sum_hessian":[1.9680485E3,1.8235593E3,1.4448912E2,1.7518425E3,7.171687E1,1.3688411E2,7.6050076E0,4.302196E1,1.7088206E3,3.630268E1,3.5414192E1,1.1135635E1,1.25748474E2,6.1085577E0,1.4964498E0],"tree_param":{"num_deleted":"0","num_feature":"34","num_nodes":"15","size_leaf_vector":"1"}},{"base_weights":[-6.8187234E-3,-3.9842203E-2,5.2506708E-2,1.2895799E-1,-6.1315518E-2,5.8723398E-2,-1.0718457E-1,2.2570884E-2,-4.0148605E-2,8.670486E-2,-6.721689E-3,6.591759E-3,-6.0144838E-2],"categories":[],"categories_nodes":[],"categories_segments":[],"categories_sizes":[],"default_left":[0,0,0,0,0,0,0,0,0,0,0,0,0],"id":46,"left_children":[1,3,5,7,9,11,-1,-1,-1,-1,-1,-1,-1],"loss_changes":[3.854228E0,4.5884237E0,4.980586E0,7.426256E0,6.2039685E0,3.3672194E0,0E0,0E0,0E0,0E0,0E0,0E0,0E0],"parents":[2147483647,0,0,1,1,2,2,3,3,4,4,5,5],"right_children":[2,4,6,8,10,12,-1,-1,-1,-1,-1,-1,-1],"split_conditions":[1E1,7E0,2E0,8E-1,5E0,9.797959E-1,-1.0718457E-1,2.2570884E-2,-4.0148605E-2,8.670486E-2,-6.721689E-3,6.591759E-3,-6.0144838E-2],"split_indices":[11,5,25,10,14,4,0,0,0,0,0,0,0],"split_type":[0,0,0,0,0,0,0,0,0,0,0,0,0],"sum_hessian":[1.9652462E3,1.2626957E3,7.0255066E2,1.4193661E2,1.120759E3,6.9963007E2,2.9205742E0,1.2052739E2,2.1409222E1,6.157634E0,1.1146014E3,6.929785E2,6.65155E0],"tree_param":{"num_deleted":"0","num_feature":"34","num_nodes":"13","size_leaf_vector":"1"}},{"base_weights":[4.2245947E-3,3.0835321E-2,-4.7263213E-2,3.567149E-2,-5.494656E-1,-7.8517646E-2,2.1820134E-1,2.1428226E-3,2.0502929E-2,3.1582218E-2,-7.4781895E-2,-4.432143E-2,-5.732338E-3,2.6489366E-2,-3.9599914E-2],"categories":[],"categories_nodes":[],"categories_segments":[],"categories_sizes":[],"default_left":[0,0,0,0,0,0,0,0,0,0,0,0,0,0,0],"id":47,"left_children":[1,3,5,7,9,11,13,-1,-1,-1,-1,-1,-1,-1,-1],"loss_changes":[2.6839337E0,3.6436543E0,5.55527E0,3.0871012E0,2.0784657E0,4.5961843E0,2.128844E0,0E0,0E0,0E0,0E0,0E0,0E0,0E0,0E0],"parents":[2147483647,0,0,1,1,2,2,3,3,4,4,5,5,6,6],"right_children":[2,4,6,8,10,12,14,-1,-1,-1,-1,-1,-1,-1,-1],"split_conditions":[3E0,2E0,9E0,2.6E0,1E0,1.8E0,2E0,2.1428226E-3,2.0502929E-2,3.1582218E-2,-7.4781895E-2,-4.432143E-2,-5.732338E-3,2.6489366E-2,-3.9599914E-2],"split_indices":[26,21,14,9,31,9,22,0,0,0,0,0,0,0,0],"split_type":[0,0,0,0,0,0,0,0,0,0,0,0,0,0,0],"sum_hessian":[1.9568291E3,1.2903378E3,6.664913E2,1.2806039E3,9.733896E0,5.969175E2,6.957378E1,1.1822972E3,9.83066E1,1.7047875E0,8.029109E0,3.169085E1,5.652266E2,6.51869E1,4.386875E0],"tree_param":{"num_deleted":"0","num_feature":"34","num_nodes":"15","size_leaf_vector":"1"}},{"base_weights":[-6.492597E-4,3.6001608E-3,-4.7253588E-1,1.0227592E-2,-1.8941112E-1,-7.5735575E-1,1.3517964E-1,4.089744E-2,6.454938E-4,2.9728776E-2,-3.6759347E-2,2.7566615E-2,-9.568122E-2,5.8245033E-2,-9.791381E-2],"categories":[],"categories_nodes":[],"categories_segments":[],"categories_sizes":[],"default_left":[0,0,0,0,0,0,0,0,0,0,0,0,0,0,0],"id":48,"left_children":[1,3,5,7,9,11,13,-1,-1,-1,-1,-1,-1,-1,-1],"loss_changes":[3.9225156E0,2.482018E0,3.1241832E0,2.818598E0,5.695383E0,2.7441888E0,3.769858E0,0E0,0E0,0E0,0E0,0E0,0E0,0E0,0E0],"parents":[2147483647,0,0,1,1,2,2,3,3,4,4,5,5,6,6],"right_children":[2,4,6,8,10,12,14,-1,-1,-1,-1,-1,-1,-1,-1],"split_conditions":[2E0,3E0,1E0,4E-1,4.8989794E-1,6E0,8E0,4.089744E-2,6.454938E-4,2.9728776E-2,-3.6759347E-2,2.7566615E-2,-9.568122E-2,5.8245033E-2,-9.791381E-2],"split_indices":[29,30,21,13,16,14,5,0,0,0,0,0,0,0,0],"split_type":[0,0,0,0,0,0,0,0,0,0,0,0,0,0,0],"sum_hessian":[1.9542798E3,1.9378218E3,1.645805E1,1.8744072E3,6.341454E1,1.103841E1,5.419639E0,1.6561407E1,1.8578458E3,1.6815403E1,4.6599136E1,1.7245514E0,9.313859E0,4.207938E0,1.2117012E0],"tree_param":{"num_deleted":"0","num_feature":"34","num_nodes":"15","size_leaf_vector":"1"}},{"base_weights":[-1.3476161E-3,3.5226583E-2,-3.7788812E-2,4.745829E-2,-2.6980534E-1,-1.1360399E-2,-1.9693364E-1,-1.158528E-3,1.109008E-2,-9.8689295E-2,1.0477591E-2,-1.9575575E-2,1.3393371E-3,-3.5150442E-2,-5.246095E-3],"categories":[],"categories_nodes":[],"categories_segments":[],"categories_sizes":[],"default_left":[0,0,0,0,0,0,0,0,0,0,0,0,0,0,0],"id":49,"left_children":[1,3,5,7,9,11,13,-1,-1,-1,-1,-1,-1,-1,-1],"loss_changes":[2.615808E0,3.6675518E0,4.1325626E0,3.5322628E0,1.0287601E1,3.8556817E0,3.1067028E0,0E0,0E0,0E0,0E0,0E0,0E0,0E0,0E0],"parents":[2147483647,0,0,1,1,2,2,3,3,4,4,5,5,6,6],"right_children":[2,4,6,8,10,12,14,-1,-1,-1,-1,-1,-1,-1,-1],"split_conditions":[1E0,8.944272E-1,1.611E1,2E0,1.604E1,4.8989794E-1,1.1E1,-1.158528E-3,1.109008E-2,-9.8689295E-2,1.0477591E-2,-1.9575575E-2,1.3393371E-3,-3.5150442E-2,-5.246095E-3],"split_indices":[0,4,1,31,1,10,8,0,0,0,0,0,0,0,0],"split_type":[0,0,0,0,0,0,0,0,0,0,0,0,0,0,0],"sum_hessian":[1.9606312E3,9.785465E2,9.8208466E2,9.416317E2,3.6914787E1,8.431399E2,1.389448E2,4.8814804E2,4.5348367E2,1.2105572E1,2.4809216E1,9.897191E1,7.4416797E2,6.643414E1,7.251065E1],"tree_param":{"num_deleted":"0","num_feature":"34","num_nodes":"15","size_leaf_vector":"1"}},{"base_weights":[-7.310123E-3,-3.7209056E-2,3.217188E-2,-6.1901635E-1,-3.041016E-2,-7.6466155E-1,3.9120298E-2,-9.065307E-2,1.2605003E-2,-6.739533E-3,2.7174817E-3,-6.39833E-3,-1.0550072E-1,8.572108E-3,-6.727956E-3],"categories":[],"categories_nodes":[],"categories_segments":[],"categories_sizes":[],"default_left":[0,0,0,0,0,0,0,0,0,0,0,0,0,0,0],"id":50,"left_children":[1,3,5,7,9,11,13,-1,-1,-1,-1,-1,-1,-1,-1],"loss_changes":[2.3076026E0,4.3810315E0,4.6946435E0,2.8554587E0,2.3456674E0,1.4240804E0,4.1517816E0,0E0,0E0,0E0,0E0,0E0,0E0,0E0,0E0],"parents":[2147483647,0,0,1,1,2,2,3,3,4,4,5,5,6,6],"right_children":[2,4,6,8,10,12,14,-1,-1,-1,-1,-1,-1,-1,-1],"split_conditions":[1E0,4E-1,8E0,1E0,6.324555E-1,1.608E1,3E0,-9.065307E-2,1.2605003E-2,-6.739533E-3,2.7174817E-3,-6.39833E-3,-1.0550072E-1,8.572108E-3,-6.727956E-3],"split_indices":[19,10,8,25,16,1,24,0,0,0,0,0,0,0,0],"split_type":[0,0,0,0,0,0,0,0,0,0,0,0,0,0,0],"sum_hessian":[1.952803E3,1.1112972E3,8.4150574E2,1.1796308E1,1.099501E3,6.331845E0,8.351739E2,8.355344E0,3.4409633E0,6.6939655E2,4.3010443E2,2.2126136E0,4.119231E0,5.809326E2,2.5424129E2],"tree_param":{"num_deleted":"0","num_feature":"34","num_nodes":"15","size_leaf_vector":"1"}},{"base_weights":[6.3546677E-3,1.2954513E-2,-2.659942E-1,-1.5661228E-2,6.622714E-2,4.1410422E-1,-3.9176843E-1,6.222703E-2,-1.975242E-3,-1.780361E-2,9.175353E-3,-6.333072E-2,7.1589835E-2,1.9283514E-2,-5.560791E-2],"categories":[],"categories_nodes":[],"categories_segments":[],"categories_sizes":[],"default_left":[0,0,0,0,0,0,0,0,0,0,0,0,0,0,0],"id":51,"left_children":[1,3,5,7,9,11,13,-1,-1,-1,-1,-1,-1,-1,-1],"loss_changes":[3.5001664E0,2.897913E0,4.1032863E0,3.2408648E0,4.158011E0,2.8800688E0,3.8915129E0,0E0,0E0,0E0,0E0,0E0,0E0,0E0,0E0],"parents":[2147483647,0,0,1,1,2,2,3,3,4,4,5,5,6,6],"right_children":[2,4,6,8,10,12,14,-1,-1,-1,-1,-1,-1,-1,-1],"split_conditions":[2E0,1E1,6.324555E-1,5E0,1E0,8E0,1.603E1,6.222703E-2,-1.975242E-3,-1.780361E-2,9.175353E-3,-6.333072E-2,7.1589835E-2,1.9283514E-2,-5.560791E-2],"split_indices":[28,11,10,14,18,8,1,0,0,0,0,0,0,0,0],"split_type":[0,0,0,0,0,0,0,0,0,0,0,0,0,0,0],"sum_hessian":[1.9443672E3,1.899294E3,4.5073257E1,1.2360485E3,6.632455E2,6.6768913E0,3.839637E1,6.9136696E0,1.2291348E3,6.218828E1,6.0105725E2,1.247796E0,5.4290953E0,8.386019E0,3.001035E1],"tree_param":{"num_deleted":"0","num_feature":"34","num_nodes":"15","size_leaf_vector":"1"}},{"base_weights":[-1.598253E-2,-2.6025439E-2,1.3401407E-1,5.106185E-1,-2.8343724E-2,4.0878934E-1,1.4362057E-2,8.438363E-2,-9.233033E-3,-3.994618E-3,6.206618E-3,2.905715E-2,1.2148904E-1,-7.3005618E-3,4.5965232E-2],"categories":[],"categories_nodes":[],"categories_segments":[],"categories_sizes":[],"default_left":[0,0,0,0,0,0,0,0,0,0,0,0,0,0,0],"id":52,"left_children":[1,3,5,7,9,11,13,-1,-1,-1,-1,-1,-1,-1,-1],"loss_changes":[2.951031E0,2.2970462E0,4.0363865E0,1.6740594E0,1.9197817E0,3.1977997E0,3.406077E0,0E0,0E0,0E0,0E0,0E0,0E0,0E0,0E0],"parents":[2147483647,0,0,1,1,2,2,3,3,4,4,5,5,6,6],"right_children":[2,4,6,8,10,12,14,-1,-1,-1,-1,-1,-1,-1,-1],"split_conditions":[1.3E1,1E1,8E-1,3E0,1E1,2E0,2E0,8.438363E-2,-9.233033E-3,-3.994618E-3,6.206618E-3,2.905715E-2,1.2148904E-1,-7.3005618E-3,4.5965232E-2],"split_indices":[8,2,7,31,5,19,32,0,0,0,0,0,0,0,0],"split_type":[0,0,0,0,0,0,0,0,0,0,0,0,0,0,0],"sum_hessian":[1.9556772E3,1.8337278E3,1.2194937E2,6.9444647E0,1.8267833E3,3.626106E1,8.568832E1,4.2153497E0,2.729115E0,1.6195074E3,2.0727596E2,3.2809834E1,3.4512243E0,7.233246E1,1.3355859E1],"tree_param":{"num_deleted":"0","num_feature":"34","num_nodes":"15","size_leaf_vector":"1"}},{"base_weights":[3.707664E-3,-2.9795691E-2,3.7918527E-2,1.5189818E-1,-5.2422013E-2,-2.9493205E-2,8.9107335E-2,1.9130008E-2,-8.867275E-2,-6.4953853E-4,-1.8490708E-2,-1.2058921E-3,-8.615004E-2,7.591804E-3,7.704678E-2],"categories":[],"categories_nodes":[],"categories_segments":[],"categories_sizes":[],"default_left":[0,0,0,0,0,0,0,0,0,0,0,0,0,0,0],"id":53,"left_children":[1,3,5,7,9,11,13,-1,-1,-1,-1,-1,-1,-1,-1],"loss_changes":[2.254121E0,4.092947E0,3.360179E0,4.6832676E0,5.3797855E0,6.092114E0,4.9137774E0,0E0,0E0,0E0,0E0,0E0,0E0,0E0,0E0],"parents":[2147483647,0,0,1,1,2,2,3,3,4,4,5,5,6,6],"right_children":[2,4,6,8,10,12,14,-1,-1,-1,-1,-1,-1,-1,-1],"split_conditions":[7.483315E-1,1E0,8E-1,2E0,1E0,8.944272E-1,2E0,1.9130008E-2,-8.867275E-2,-6.4953853E-4,-1.8490708E-2,-1.2058921E-3,-8.615004E-2,7.591804E-3,7.704678E-2],"split_indices":[10,31,7,17,28,4,17,0,0,0,0,0,0,0,0],"split_type":[0,0,0,0,0,0,0,0,0,0,0,0,0,0,0],"sum_hessian":[1.9646545E3,9.9265625E2,9.719983E2,1.09293594E2,8.833627E2,4.197041E2,5.522942E2,1.0608491E2,3.2086842E0,6.56747E2,2.2661566E2,4.120836E2,7.620507E0,5.428966E2,9.39759E0],"tree_param":{"num_deleted":"0","num_feature":"34","num_nodes":"15","size_leaf_vector":"1"}},{"base_weights":[-4.777305E-3,-1.8701402E-2,1.04764245E-1,-5.1016662E-2,3.9018143E-2,-1.6556408E-2,3.237657E-1,-1.2297188E-2,2.1429619E-4,4.4935E-3,-9.7611666E-2,-6.907157E-3,4.7588143E-2,5.549912E-3,5.919903E-2],"categories":[],"categories_nodes":[],"categories_segments":[],"categories_sizes":[],"default_left":[0,0,0,0,0,0,0,0,0,0,0,0,0,0,0],"id":54,"left_children":[1,3,5,7,9,11,13,-1,-1,-1,-1,-1,-1,-1,-1],"loss_changes":[2.9752507E0,3.2295024E0,5.850479E0,4.245125E0,3.7776105E0,3.7185123E0,5.6137915E0,0E0,0E0,0E0,0E0,0E0,0E0,0E0,0E0],"parents":[2147483647,0,0,1,1,2,2,3,3,4,4,5,5,6,6],"right_children":[2,4,6,8,10,12,14,-1,-1,-1,-1,-1,-1,-1,-1],"split_conditions":[2E0,1E1,2E0,1.1E1,2E0,6.324555E-1,6.324555E-1,-1.2297188E-2,2.1429619E-4,4.4935E-3,-9.7611666E-2,-6.907157E-3,4.7588143E-2,5.549912E-3,5.919903E-2],"split_indices":[20,11,31,8,25,4,10,0,0,0,0,0,0,0,0],"split_type":[0,0,0,0,0,0,0,0,0,0,0,0,0,0,0],"sum_hessian":[1.9483574E3,1.729363E3,2.1899435E2,1.1087351E3,6.206279E2,1.4152042E2,7.747394E1,4.7052878E2,6.3820636E2,6.179816E2,2.646257E0,1.2865948E2,1.2860929E1,3.933735E1,3.8136593E1],"tree_param":{"num_deleted":"0","num_feature":"34","num_nodes":"15","size_leaf_vector":"1"}},{"base_weights":[-1.2480805E-2,-4.7771692E-2,2.3969172E-2,1.6704838E-1,-7.4857816E-2,-4.734433E-2,7.7842556E-2,6.948204E-2,8.049091E-3,1.098535E-2,-9.4909305E-3,-4.4537093E-2,-1.2448144E-3,1.0429229E-2,-3.0386824E-2],"categories":[],"categories_nodes":[],"categories_segments":[],"categories_sizes":[],"default_left":[0,0,0,0,0,0,0,0,0,0,0,0,0,0,0],"id":55,"left_children":[1,3,5,7,9,11,13,-1,-1,-1,-1,-1,-1,-1,-1],"loss_changes":[2.5141177E0,5.7898264E0,3.6983135E0,5.0369453E0,3.278657E0,5.7512703E0,5.5663776E0,0E0,0E0,0E0,0E0,0E0,0E0,0E0,0E0],"parents":[2147483647,0,0,1,1,2,2,3,3,4,4,5,5,6,6],"right_children":[2,4,6,8,10,12,14,-1,-1,-1,-1,-1,-1,-1,-1],"split_conditions":[7.483315E-1,1E0,8E-1,8E0,7E0,8E0,9.797959E-1,6.948204E-2,8.049091E-3,1.098535E-2,-9.4909305E-3,-4.4537093E-2,-1.2448144E-3,1.0429229E-2,-3.0386824E-2],"split_indices":[10,31,7,11,5,11,16,0,0,0,0,0,0,0,0],"split_type":[0,0,0,0,0,0,0,0,0,0,0,0,0,0,0],"sum_hessian":[1.9525653E3,9.9189825E2,9.60667E2,1.1048381E2,8.814144E2,4.1346912E2,5.471979E2,1.4576765E1,9.590704E1,8.587431E1,7.955401E2,3.237996E1,3.8108914E2,5.124179E2,3.4779987E1],"tree_param":{"num_deleted":"0","num_feature":"34","num_nodes":"15","size_leaf_vector":"1"}},{"base_weights":[1.550988E-2,1.3360137E-2,5.571287E-1,1.8513778E-2,-2.0847942E-1,9.916218E-1,7.0300266E-2,3.0349707E-3,-8.367532E-3,7.694514E-2,-2.6005229E-2,1.2567304E-1,2.2521833E-2,-5.965371E-2,4.7808226E-2],"categories":[],"categories_nodes":[],"categories_segments":[],"categories_sizes":[],"default_left":[0,0,0,0,0,0,0,0,0,0,0,0,0,0,0],"id":56,"left_children":[1,3,5,7,9,11,13,-1,-1,-1,-1,-1,-1,-1,-1],"loss_changes":[2.264241E0,2.2268083E0,1.5566363E0,2.3019648E0,2.4306312E0,5.2692604E-1,1.5638607E0,0E0,0E0,0E0,0E0,0E0,0E0,0E0,0E0],"parents":[2147483647,0,0,1,1,2,2,3,3,4,4,5,5,6,6],"right_children":[2,4,6,8,10,12,14,-1,-1,-1,-1,-1,-1,-1,-1],"split_conditions":[4E0,2E0,2E0,3E0,4.8989794E-1,2.2E0,1.608E1,3.0349707E-3,-8.367532E-3,7.694514E-2,-2.6005229E-2,1.2567304E-1,2.2521833E-2,-5.965371E-2,4.7808226E-2],"split_indices":[24,28,26,31,10,12,1,0,0,0,0,0,0,0,0],"split_type":[0,0,0,0,0,0,0,0,0,0,0,0,0,0,0],"sum_hessian":[1.9500468E3,1.943358E3,6.688729E0,1.900132E3,4.322616E1,2.9864385E0,3.70229E0,1.703526E3,1.9660587E2,1.4681048E0,4.1758057E1,1.7435474E0,1.2428912E0,1.2292466E0,2.4730437E0],"tree_param":{"num_deleted":"0","num_feature":"34","num_nodes":"15","size_leaf_vector":"1"}},{"base_weights":[1.0981023E-4,2.8956378E-2,-5.7220407E-2,-2.3363877E-2,8.114079E-2,-1.16805695E-1,5.2000012E-2,-4.2410507E-3,3.835043E-2,-2.7714107E-2,1.0141894E-2,-5.939978E-2,-8.803698E-3,2.1654828E-2,-9.348984E-3],"categories":[],"categories_nodes":[],"categories_segments":[],"categories_sizes":[],"default_left":[0,0,0,0,0,0,0,0,0,0,0,0,0,0,0],"id":57,"left_children":[1,3,5,7,9,11,13,-1,-1,-1,-1,-1,-1,-1,-1],"loss_changes":[3.234116E0,3.553961E0,4.266226E0,5.0566754E0,4.7618732E0,5.766436E0,5.5685287E0,0E0,0E0,0E0,0E0,0E0,0E0,0E0,0E0],"parents":[2147483647,0,0,1,1,2,2,3,3,4,4,5,5,6,6],"right_children":[2,4,6,8,10,12,14,-1,-1,-1,-1,-1,-1,-1,-1],"split_conditions":[1E0,8E-1,2E0,2.6E0,1.602E1,7E0,8E-1,-4.2410507E-3,3.835043E-2,-2.7714107E-2,1.0141894E-2,-5.939978E-2,-8.803698E-3,2.1654828E-2,-9.348984E-3],"split_indices":[28,7,30,9,1,5,7,0,0,0,0,0,0,0,0],"split_type":[0,0,0,0,0,0,0,0,0,0,0,0,0,0,0],"sum_hessian":[1.9535884E3,1.2999791E3,6.5360925E2,6.494204E2,6.5055865E2,4.2285236E2,2.3075691E2,6.2123444E2,2.8185946E1,3.4169662E1,6.1638904E2,2.292606E1,3.999263E2,1.0805681E2,1.22700096E2],"tree_param":{"num_deleted":"0","num_feature":"34","num_nodes":"15","size_leaf_vector":"1"}},{"base_weights":[1.8549193E-2,5.6805345E-3,1.2142516E-1,-4.6596024E-2,3.4104425E-2,-7.1640303E-3,3.5328832E-1,-9.00465E-3,1.3039059E-2,-2.8612992E-2,5.0210836E-3,-5.591276E-3,5.5133652E-2,-2.7863568E-2,4.398145E-2],"categories":[],"categories_nodes":[],"categories_segments":[],"categories_sizes":[],"default_left":[0,0,0,0,0,0,0,0,0,0,0,0,0,0,0],"id":58,"left_children":[1,3,5,7,9,11,13,-1,-1,-1,-1,-1,-1,-1,-1],"loss_changes":[2.5770335E0,2.5746844E0,6.455495E0,4.705368E0,5.8031406E0,3.8479886E0,4.345379E0,0E0,0E0,0E0,0E0,0E0,0E0,0E0,0E0],"parents":[2147483647,0,0,1,1,2,2,3,3,4,4,5,5,6,6],"right_children":[2,4,6,8,10,12,14,-1,-1,-1,-1,-1,-1,-1,-1],"split_conditions":[2E0,7.483315E-1,2E0,1.2E1,9E0,9E0,7E0,-9.00465E-3,1.3039059E-2,-2.8612992E-2,5.0210836E-3,-5.591276E-3,5.5133652E-2,-2.7863568E-2,4.398145E-2],"split_indices":[20,4,31,8,8,14,11,0,0,0,0,0,0,0,0],"split_type":[0,0,0,0,0,0,0,0,0,0,0,0,0,0,0],"sum_hessian":[1.9461036E3,1.7306709E3,2.1543277E2,6.0934265E2,1.1213282E3,1.3920183E2,7.623095E1,4.896292E2,1.19713455E2,5.289442E1,1.0684337E3,1.2885463E2,1.0347191E1,8.913442E0,6.731751E1],"tree_param":{"num_deleted":"0","num_feature":"34","num_nodes":"15","size_leaf_vector":"1"}},{"base_weights":[-8.999516E-3,-3.5161868E-2,3.294918E-2,-2.0667107E-1,-1.2451355E-2,-8.915225E-1,4.281286E-2,8.493742E-2,-2.3557346E-2,9.709566E-3,-4.7496706E-3,-2.3153303E-2,-1.3303742E-1,7.3453295E-3,-2.526815E-2],"categories":[],"categories_nodes":[],"categories_segments":[],"categories_sizes":[],"default_left":[0,0,0,0,0,0,0,0,0,0,0,0,0,0,0],"id":59,"left_children":[1,3,5,7,9,11,13,-1,-1,-1,-1,-1,-1,-1,-1],"loss_changes":[2.1415157E0,4.677808E0,6.873856E0,4.486743E0,4.0824237E0,1.9973826E0,6.7427917E0,0E0,0E0,0E0,0E0,0E0,0E0,0E0,0E0],"parents":[2147483647,0,0,1,1,2,2,3,3,4,4,5,5,6,6],"right_children":[2,4,6,8,10,12,14,-1,-1,-1,-1,-1,-1,-1,-1],"split_conditions":[8E0,4.8989794E-1,8E0,1.1E1,1E1,1.1E1,2E0,8.493742E-2,-2.3557346E-2,9.709566E-3,-4.7496706E-3,-2.3153303E-2,-1.3303742E-1,7.3453295E-3,-2.526815E-2],"split_indices":[14,10,8,2,8,11,22,0,0,0,0,0,0,0,0],"split_type":[0,0,0,0,0,0,0,0,0,0,0,0,0,0,0],"sum_hessian":[1.9492534E3,1.2006191E3,7.486343E2,1.3944368E2,1.0611754E3,6.959635E0,7.416747E2,2.9584672E0,1.3648521E2,2.5677164E2,8.0440375E2,3.3895996E0,3.570035E0,6.72675E2,6.899966E1],"tree_param":{"num_deleted":"0","num_feature":"34","num_nodes":"15","size_leaf_vector":"1"}},{"base_weights":[-3.0325598E-4,2.5561946E-3,-5.3935546E-1,6.9380817E-3,-1.8132076E-1,-7.929299E-1,2.2954209E-2,2.1521258E-3,-4.5446265E-3,-2.415856E-2,6.2179733E-2,-1.06927894E-1,-1.2897983E-2,6.2395155E-2,-4.368025E-2],"categories":[],"categories_nodes":[],"categories_segments":[],"categories_sizes":[],"default_left":[0,0,0,0,0,0,0,0,0,0,0,0,0,0,0],"id":60,"left_children":[1,3,5,7,9,11,13,-1,-1,-1,-1,-1,-1,-1,-1],"loss_changes":[3.0255213E0,1.5745201E0,1.4950013E0,1.458642E0,2.351693E0,1.1769757E0,1.4305259E0,0E0,0E0,0E0,0E0,0E0,0E0,0E0,0E0],"parents":[2147483647,0,0,1,1,2,2,3,3,4,4,5,5,6,6],"right_children":[2,4,6,8,10,12,14,-1,-1,-1,-1,-1,-1,-1,-1],"split_conditions":[1.1661904E0,2E0,7.483315E-1,1E0,9.797959E-1,8E0,1E0,2.1521258E-3,-4.5446265E-3,-2.415856E-2,6.2179733E-2,-1.06927894E-1,-1.2897983E-2,6.2395155E-2,-4.368025E-2],"split_indices":[16,28,10,17,10,5,18,0,0,0,0,0,0,0,0],"split_type":[0,0,0,0,0,0,0,0,0,0,0,0,0,0,0],"sum_hessian":[1.960954E3,1.9515968E3,9.3571615E0,1.9071116E3,4.4485233E1,6.16632E0,3.190842E0,1.4922705E3,4.148411E2,4.2030514E1,2.4547198E0,3.9230063E0,2.2433136E0,1.228198E0,1.9626437E0],"tree_param":{"num_deleted":"0","num_feature":"34","num_nodes":"15","size_leaf_vector":"1"}},{"base_weights":[-3.5502943E-3,6.509244E-1,-6.0850787E-3,1.1747982E-1,6.236678E-3,-6.388799E-2,1.8978294E-2,7.846466E-2,-9.153078E-2,2.2362715E-2,-9.764908E-3,2.664972E-3,-2.9185474E-2],"categories":[],"categories_nodes":[],"categories_segments":[],"categories_sizes":[],"default_left":[0,0,0,0,0,0,0,0,0,0,0,0,0],"id":61,"left_children":[1,3,5,-1,7,9,11,-1,-1,-1,-1,-1,-1],"loss_changes":[3.26798E0,2.5594847E0,2.8420656E0,0E0,3.883453E0,5.781089E0,3.2712471E0,0E0,0E0,0E0,0E0,0E0,0E0],"parents":[2147483647,0,0,1,1,2,2,4,4,5,5,6,6],"right_children":[2,4,6,-1,8,10,12,-1,-1,-1,-1,-1,-1],"split_conditions":[6E0,8E0,1E0,1.1747982E-1,9E0,4.8989794E-1,1E1,7.846466E-2,-9.153078E-2,2.2362715E-2,-9.764908E-3,2.664972E-3,-2.9185474E-2],"split_indices":[11,14,18,0,5,7,14,0,0,0,0,0,0],"split_type":[0,0,0,0,0,0,0,0,0,0,0,0,0],"sum_hessian":[1.9665186E3,6.6000743E0,1.9599186E3,3.1875737E0,3.4125004E0,5.923198E2,1.3675986E3,1.9304452E0,1.4820552E0,6.1652546E1,5.306673E2,1.3355513E3,3.2047432E1],"tree_param":{"num_deleted":"0","num_feature":"34","num_nodes":"13","size_leaf_vector":"1"}},{"base_weights":[5.098662E-3,2.2378437E-2,-5.818821E-2,-3.9038208E-1,2.7744874E-2,-4.7795907E-2,-1.0817636E0,-8.056152E-3,-1.1856464E-1,-6.21673E-4,8.801374E-3,-2.6038394E-3,-4.5583244E-2,-2.7919445E-2,-1.3252299E-1],"categories":[],"categories_nodes":[],"categories_segments":[],"categories_sizes":[],"default_left":[0,0,0,0,0,0,0,0,0,0,0,0,0,0,0],"id":62,"left_children":[1,3,5,7,9,11,13,-1,-1,-1,-1,-1,-1,-1,-1],"loss_changes":[2.1404486E0,3.4159753E0,4.414007E0,4.7821164E0,3.1086078E0,3.6870265E0,4.454608E-1,0E0,0E0,0E0,0E0,0E0,0E0,0E0,0E0],"parents":[2147483647,0,0,1,1,2,2,3,3,4,4,5,5,6,6],"right_children":[2,4,6,8,10,12,14,-1,-1,-1,-1,-1,-1,-1,-1],"split_conditions":[1E0,8E0,1.3E1,8E0,2E0,9.797959E-1,1E0,-8.056152E-3,-1.1856464E-1,-6.21673E-4,8.801374E-3,-2.6038394E-3,-4.5583244E-2,-2.7919445E-2,-1.3252299E-1],"split_indices":[17,8,11,14,30,16,23,0,0,0,0,0,0,0,0],"split_type":[0,0,0,0,0,0,0,0,0,0,0,0,0,0,0],"sum_hessian":[1.9550897E3,1.5362738E3,4.18816E2,1.8796453E1,1.5174773E3,4.156427E2,3.1733022E0,1.4319239E1,4.4772143E0,9.7113684E2,5.4634045E2,3.9561154E2,2.003117E1,1.2382494E0,1.9350528E0],"tree_param":{"num_deleted":"0","num_feature":"34","num_nodes":"15","size_leaf_vector":"1"}},{"base_weights":[-8.870076E-3,3.1686984E-3,-1.1471704E-1,1.1502308E-3,6.470707E-1,-2.824522E-1,-1.20352525E-2,-2.9895268E-3,3.9617894E-3,-1.679123E-2,1.264758E-1,1.1475358E-2,-4.444469E-2,-4.2752113E-2,5.565043E-3],"categories":[],"categories_nodes":[],"categories_segments":[],"categories_sizes":[],"default_left":[0,0,0,0,0,0,0,0,0,0,0,0,0,0,0],"id":63,"left_children":[1,3,5,7,9,11,13,-1,-1,-1,-1,-1,-1,-1,-1],"loss_changes":[2.4767804E0,2.2684093E0,3.4152963E0,2.0809162E0,2.9579885E0,4.8978825E0,3.515637E0,0E0,0E0,0E0,0E0,0E0,0E0,0E0,0E0],"parents":[2147483647,0,0,1,1,2,2,3,3,4,4,5,5,6,6],"right_children":[2,4,6,8,10,12,14,-1,-1,-1,-1,-1,-1,-1,-1],"split_conditions":[3E0,4E0,4.8989794E-1,2E0,4.8989794E-1,6.324555E-1,1.602E1,-2.9895268E-3,3.9617894E-3,-1.679123E-2,1.264758E-1,1.1475358E-2,-4.444469E-2,-4.2752113E-2,5.565043E-3],"split_indices":[31,24,16,31,16,10,1,0,0,0,0,0,0,0,0],"split_type":[0,0,0,0,0,0,0,0,0,0,0,0,0,0,0],"sum_hessian":[1.9424038E3,1.7449119E3,1.9749194E2,1.7404578E3,4.4541025E0,7.4326164E1,1.2316578E2,9.632696E2,7.7718823E2,2.2343013E0,2.219801E0,2.1616018E1,5.2710148E1,1.6509094E1,1.06656685E2],"tree_param":{"num_deleted":"0","num_feature":"34","num_nodes":"15","size_leaf_vector":"1"}},{"base_weights":[1.0394571E-2,1.3173999E-2,-3.1711316E-1,2.8649272E-2,-4.320529E-2,-5.523649E-1,1.725756E-1,2.576181E-3,6.2135726E-2,-8.737805E-3,9.171328E-3,-1.2291254E-1,8.9858426E-4,-1.6787915E-2,7.4272886E-2],"categories":[],"categories_nodes":[],"categories_segments":[],"categories_sizes":[],"default_left":[0,0,0,0,0,0,0,0,0,0,0,0,0,0,0],"id":64,"left_children":[1,3,5,7,9,11,13,-1,-1,-1,-1,-1,-1,-1,-1],"loss_changes":[1.7967892E0,1.705791E0,2.009008E0,2.6084874E0,2.5180166E0,4.3643713E0,1.3189927E0,0E0,0E0,0E0,0E0,0E0,0E0,0E0,0E0],"parents":[2147483647,0,0,1,1,2,2,3,3,4,4,5,5,6,6],"right_children":[2,4,6,8,10,12,14,-1,-1,-1,-1,-1,-1,-1,-1],"split_conditions":[2E0,1E0,1E0,1.4E1,1.61E1,1E0,8E0,2.576181E-3,6.2135726E-2,-8.737805E-3,9.171328E-3,-1.2291254E-1,8.9858426E-4,-1.6787915E-2,7.4272886E-2],"split_indices":[29,33,21,11,1,0,14,0,0,0,0,0,0,0,0],"split_type":[0,0,0,0,0,0,0,0,0,0,0,0,0,0,0],"sum_hessian":[1.9682881E3,1.9526763E3,1.5611812E1,1.5325155E3,4.2016077E2,1.0459138E1,5.152674E0,1.5261243E3,6.391275E0,3.1679382E2,1.0336694E2,4.202749E0,6.2563887E0,3.6679757E0,1.4846985E0],"tree_param":{"num_deleted":"0","num_feature":"34","num_nodes":"15","size_leaf_vector":"1"}},{"base_weights":[1.5983287E-3,-1.30601E-3,5.7049143E-1,4.5939405E-3,-2.582094E-1,-3.8623165E-2,8.556544E-1,3.022415E-2,1.4090505E-4,1.9460427E-2,-3.9706375E-2,1.5361212E-2,9.550347E-2],"categories":[],"categories_nodes":[],"categories_segments":[],"categories_sizes":[],"default_left":[0,0,0,0,0,0,0,0,0,0,0,0,0],"id":65,"left_children":[1,3,5,7,9,-1,11,-1,-1,-1,-1,-1,-1],"loss_changes":[3.2243285E0,2.9448678E0,3.0347226E0,1.8002397E0,2.8197482E0,0E0,4.0775633E-1,0E0,0E0,0E0,0E0,0E0,0E0],"parents":[2147483647,0,0,1,1,2,2,3,3,4,4,6,6],"right_children":[2,4,6,8,10,-1,12,-1,-1,-1,-1,-1,-1],"split_conditions":[2.2E0,2E0,2E0,4E-1,7.483315E-1,-3.8623165E-2,9E0,3.022415E-2,1.4090505E-4,1.9460427E-2,-3.9706375E-2,1.5361212E-2,9.550347E-2],"split_indices":[15,28,26,13,13,0,8,0,0,0,0,0,0],"split_type":[0,0,0,0,0,0,0,0,0,0,0,0,0],"sum_hessian":[1.9500167E3,1.9411046E3,8.91211E0,1.8984868E3,4.261784E1,1.965023E0,6.947087E0,1.9105036E1,1.8793817E3,9.907452E0,3.271039E1,1.1771519E0,5.769935E0],"tree_param":{"num_deleted":"0","num_feature":"34","num_nodes":"13","size_leaf_vector":"1"}},{"base_weights":[5.5227457E-3,7.015821E-2,-1.4453675E-2,9.050514E-2,-7.2992176E-1,3.8020086E-1,-1.8600686E-2,-3.7468478E-2,1.1052183E-2,-9.205702E-2,-8.221485E-3,5.5410326E-2,-6.556311E-2,-2.8099206E-3,1.4201147E-2],"categories":[],"categories_nodes":[],"categories_segments":[],"categories_sizes":[],"default_left":[0,0,0,0,0,0,0,0,0,0,0,0,0,0,0],"id":66,"left_children":[1,3,5,7,9,11,13,-1,-1,-1,-1,-1,-1,-1,-1],"loss_changes":[2.5325925E0,7.6045017E0,2.4597185E0,4.2546883E0,1.356081E0,3.1787767E0,2.267886E0,0E0,0E0,0E0,0E0,0E0,0E0,0E0,0E0],"parents":[2147483647,0,0,1,1,2,2,3,3,4,4,5,5,6,6],"right_children":[2,4,6,8,10,12,14,-1,-1,-1,-1,-1,-1,-1,-1],"split_conditions":[1E1,2E0,6E0,6E0,1E0,1.611E1,2E0,-3.7468478E-2,1.1052183E-2,-9.205702E-2,-8.221485E-3,5.5410326E-2,-6.556311E-2,-2.8099206E-3,1.4201147E-2],"split_indices":[8,19,5,5,25,1,19,0,0,0,0,0,0,0,0],"split_type":[0,0,0,0,0,0,0,0,0,0,0,0,0,0,0],"sum_hessian":[1.9596625E3,4.6207288E2,1.4975896E3,4.5147815E2,1.0594713E1,1.4629999E1,1.4829596E3,1.789429E1,4.3358386E2,7.859919E0,2.734794E0,1.292511E1,1.7048897E0,1.4009341E3,8.2025475E1],"tree_param":{"num_deleted":"0","num_feature":"34","num_nodes":"15","size_leaf_vector":"1"}},{"base_weights":[-3.303189E-3,-1.174931E-1,3.3528307E-3,-2.5685126E-1,1.658468E-1,8.328004E-3,-3.0621862E-1,9.160556E-3,-4.9374208E-2,-5.6227475E-2,3.9819904E-2,3.4741156E-3,-3.1779453E-3,-5.7854157E-2,-1.4378132E-3],"categories":[],"categories_nodes":[],"categories_segments":[],"categories_sizes":[],"default_left":[0,0,0,0,0,0,0,0,0,0,0,0,0,0,0],"id":67,"left_children":[1,3,5,7,9,11,13,-1,-1,-1,-1,-1,-1,-1,-1],"loss_changes":[1.4818754E0,4.2828217E0,2.8407824E0,6.0194893E0,6.31635E0,1.9234567E0,2.3102827E0,0E0,0E0,0E0,0E0,0E0,0E0,0E0,0E0],"parents":[2147483647,0,0,1,1,2,2,3,3,4,4,5,5,6,6],"right_children":[2,4,6,8,10,12,14,-1,-1,-1,-1,-1,-1,-1,-1],"split_conditions":[7E0,7.483315E-1,2E0,8E-1,8E-1,1E0,7.483315E-1,9.160556E-3,-4.9374208E-2,-5.6227475E-2,3.9819904E-2,3.4741156E-3,-3.1779453E-3,-5.7854157E-2,-1.4378132E-3],"split_indices":[11,10,17,7,7,23,10,0,0,0,0,0,0,0,0],"split_type":[0,0,0,0,0,0,0,0,0,0,0,0,0,0,0],"sum_hessian":[1.9481886E3,1.06386246E2,1.8418024E3,7.1374725E1,3.501152E1,1.8136284E3,2.8174017E1,2.913363E1,4.2241093E1,8.126284E0,2.6885237E1,1.0935767E3,7.200517E2,1.4066169E1,1.4107848E1],"tree_param":{"num_deleted":"0","num_feature":"34","num_nodes":"15","size_leaf_vector":"1"}},{"base_weights":[2.7675825E-4,9.706895E-2,-1.17584355E-2,3.6393765E-1,-1.7308706E-2,-1.6839339E-1,-1.8168037E-3,4.6330746E-2,-4.753894E-2,2.2895299E-2,-2.0292321E-2,-5.8489215E-2,-7.4854093E-3,2.9577685E-3,-6.2904875E-3],"categories":[],"categories_nodes":[],"categories_segments":[],"categories_sizes":[],"default_left":[0,0,0,0,0,0,0,0,0,0,0,0,0,0,0],"id":68,"left_children":[1,3,5,7,9,11,13,-1,-1,-1,-1,-1,-1,-1,-1],"loss_changes":[2.2879314E0,6.636133E0,2.7199087E0,5.6588573E0,7.03977E0,4.017498E0,3.1540227E0,0E0,0E0,0E0,0E0,0E0,0E0,0E0,0E0],"parents":[2147483647,0,0,1,1,2,2,3,3,4,4,5,5,6,6],"right_children":[2,4,6,8,10,12,14,-1,-1,-1,-1,-1,-1,-1,-1],"split_conditions":[1E0,6.324555E-1,7E0,1.0198039E0,1.608E1,2E0,1E0,4.6330746E-2,-4.753894E-2,2.2895299E-2,-2.0292321E-2,-5.8489215E-2,-7.4854093E-3,2.9577685E-3,-6.2904875E-3],"split_indices":[31,10,11,16,1,24,28,0,0,0,0,0,0,0,0],"split_type":[0,0,0,0,0,0,0,0,0,0,0,0,0,0,0],"sum_hessian":[1.9620568E3,2.1620201E2,1.7458547E3,6.4208145E1,1.5199388E2,1.03244965E2,1.6426097E3,5.7811687E1,6.3964543E0,6.522455E1,8.676933E1,1.797142E1,8.5273544E1,1.0853438E3,5.57266E2],"tree_param":{"num_deleted":"0","num_feature":"34","num_nodes":"15","size_leaf_vector":"1"}},{"base_weights":[4.5529464E-3,5.3007524E-2,-2.400646E-2,1.7511416E-2,1.9409505E-1,1.2162697E-1,-4.0641934E-2,1.2370628E-2,-3.4624666E-3,-7.537016E-2,2.3768514E-2,6.2275156E-3,4.5214605E-2,-1.3121127E-3,-2.4017602E-2],"categories":[],"categories_nodes":[],"categories_segments":[],"categories_sizes":[],"default_left":[0,0,0,0,0,0,0,0,0,0,0,0,0,0,0],"id":69,"left_children":[1,3,5,7,9,11,13,-1,-1,-1,-1,-1,-1,-1,-1],"loss_changes":[2.7178886E0,3.643965E0,2.9989152E0,3.232104E0,6.2234826E0,2.4620733E0,6.0915003E0,0E0,0E0,0E0,0E0,0E0,0E0,0E0,0E0],"parents":[2147483647,0,0,1,1,2,2,3,3,4,4,5,5,6,6],"right_children":[2,4,6,8,10,12,14,-1,-1,-1,-1,-1,-1,-1,-1],"split_conditions":[1.6E0,2E0,6E0,9E0,1.1E1,8.944272E-1,1E0,1.2370628E-2,-3.4624666E-3,-7.537016E-2,2.3768514E-2,6.2275156E-3,4.5214605E-2,-1.3121127E-3,-2.4017602E-2],"split_indices":[6,31,14,11,2,10,29,0,0,0,0,0,0,0,0],"split_type":[0,0,0,0,0,0,0,0,0,0,0,0,0,0,0],"sum_hessian":[1.9621083E3,7.272991E2,1.2348092E3,5.8199854E2,1.4530049E2,1.25943085E2,1.1088662E3,1.9119165E2,3.9080692E2,5.672409E0,1.3962808E2,1.07777695E2,1.8165388E1,9.753996E2,1.3346657E2],"tree_param":{"num_deleted":"0","num_feature":"34","num_nodes":"15","size_leaf_vector":"1"}},{"base_weights":[5.2543315E-3,2.939609E-2,-4.2559486E-2,-1.1549477E-1,4.323391E-2,1.4662321E-1,-8.75764E-2,-1.3893823E-2,1.1094289E-1,-5.7973403E-2,4.917667E-3,2.3098381E-2,-3.024335E-2,3.3984717E-3,-1.3541487E-2],"categories":[],"categories_nodes":[],"categories_segments":[],"categories_sizes":[],"default_left":[0,0,0,0,0,0,0,0,0,0,0,0,0,0,0],"id":70,"left_children":[1,3,5,7,9,11,13,-1,-1,-1,-1,-1,-1,-1,-1],"loss_changes":[2.2505136E0,2.602243E0,5.584065E0,3.4049726E0,4.408887E0,4.847499E0,3.0812306E0,0E0,0E0,0E0,0E0,0E0,0E0,0E0,0E0],"parents":[2147483647,0,0,1,1,2,2,3,3,4,4,5,5,6,6],"right_children":[2,4,6,8,10,12,14,-1,-1,-1,-1,-1,-1,-1,-1],"split_conditions":[3E0,4.8989794E-1,1.604E1,2E0,4E-1,8E-1,1E0,-1.3893823E-2,1.1094289E-1,-5.7973403E-2,4.917667E-3,2.3098381E-2,-3.024335E-2,3.3984717E-3,-1.3541487E-2],"split_indices":[26,4,1,19,7,10,22,0,0,0,0,0,0,0,0],"split_type":[0,0,0,0,0,0,0,0,0,0,0,0,0,0,0],"sum_hessian":[1.9475779E3,1.2944036E3,6.531744E2,1.12204445E2,1.1821991E3,1.2511672E2,5.280577E2,1.1096725E2,1.2371964E0,1.0258582E1,1.1719406E3,1.0573818E2,1.937854E1,1.4920535E2,3.788523E2],"tree_param":{"num_deleted":"0","num_feature":"34","num_nodes":"15","size_leaf_vector":"1"}},{"base_weights":[-2.3609756E-3,-1.2114761E-1,4.5897476E-3,-9.936696E-3,-4.5652813E-1,1.0921639E-1,-5.4903585E-3,1.3271131E-2,-2.7656063E-2,-6.6386424E-2,1.7842425E-2,-6.024858E-2,1.5323425E-2,-3.5662097E-3,4.347305E-3],"categories":[],"categories_nodes":[],"categories_segments":[],"categories_sizes":[],"default_left":[0,0,0,0,0,0,0,0,0,0,0,0,0,0,0],"id":71,"left_children":[1,3,5,7,9,11,13,-1,-1,-1,-1,-1,-1,-1,-1],"loss_changes":[1.6101724E0,4.0163593E0,1.9440012E0,3.154725E0,3.649716E0,5.166746E0,2.4859781E0,0E0,0E0,0E0,0E0,0E0,0E0,0E0,0E0],"parents":[2147483647,0,0,1,1,2,2,3,3,4,4,5,5,6,6],"right_children":[2,4,6,8,10,12,14,-1,-1,-1,-1,-1,-1,-1,-1],"split_conditions":[7E0,1E0,6E0,6.324555E-1,8.944272E-1,9E0,2E0,1.3271131E-2,-2.7656063E-2,-6.6386424E-2,1.7842425E-2,-6.024858E-2,1.5323425E-2,-3.5662097E-3,4.347305E-3],"split_indices":[11,21,14,16,7,8,30,0,0,0,0,0,0,0,0],"split_type":[0,0,0,0,0,0,0,0,0,0,0,0,0,0,0],"sum_hessian":[1.9485071E3,1.06804665E2,1.8417024E3,8.0981224E1,2.582344E1,1.6097935E2,1.680723E3,5.3083153E1,2.7898071E1,1.9432468E1,6.390973E0,8.637453E0,1.523419E2,1.0400844E3,6.4063873E2],"tree_param":{"num_deleted":"0","num_feature":"34","num_nodes":"15","size_leaf_vector":"1"}},{"base_weights":[1.2605524E-3,4.4140354E-2,-4.148379E-2,1.9617742E-2,1.934957E-1,-1.6034799E-2,-1.9082649E-1,6.4141364E-3,-3.4834233E-3,1.5119344E-2,9.726611E-2,-3.6345352E-3,3.1057669E-2,7.7158E-2,-2.1532629E-2],"categories":[],"categories_nodes":[],"categories_segments":[],"categories_sizes":[],"default_left":[0,0,0,0,0,0,0,0,0,0,0,0,0,0,0],"id":72,"left_children":[1,3,5,7,9,11,13,-1,-1,-1,-1,-1,-1,-1,-1],"loss_changes":[3.558701E0,3.5461662E0,3.6924815E0,2.023375E0,4.3548107E0,5.5296493E0,3.5020366E0,0E0,0E0,0E0,0E0,0E0,0E0,0E0,0E0],"parents":[2147483647,0,0,1,1,2,2,3,3,4,4,5,5,6,6],"right_children":[2,4,6,8,10,12,14,-1,-1,-1,-1,-1,-1,-1,-1],"split_conditions":[1E0,1.611E1,3E0,1E0,9.797959E-1,2E0,1.1E1,6.4141364E-3,-3.4834233E-3,1.5119344E-2,9.726611E-2,-3.6345352E-3,3.1057669E-2,7.7158E-2,-2.1532629E-2],"split_indices":[0,1,24,32,13,32,2,0,0,0,0,0,0,0,0],"split_type":[0,0,0,0,0,0,0,0,0,0,0,0,0,0,0],"sum_hessian":[1.9396027E3,9.682508E2,9.7135187E2,8.326668E2,1.3558397E2,8.308729E2,1.4047891E2,4.5799838E2,3.7466843E2,1.297345E2,5.8494716E0,7.8306616E2,4.780677E1,2.730373E0,1.3774854E2],"tree_param":{"num_deleted":"0","num_feature":"34","num_nodes":"15","size_leaf_vector":"1"}},{"base_weights":[-6.4959945E-3,-8.2704825E-3,4.282357E-1,-4.3148915E-3,-2.3806632E-1,-1.0433685E-1,8.1816435E-1,1.4111686E-3,-5.8183135E-3,-6.2032968E-2,1.1449489E-2,6.605694E-2,-6.418089E-2,-3.2492194E-3,1.2189805E-1],"categories":[],"categories_nodes":[],"categories_segments":[],"categories_sizes":[],"default_left":[0,0,0,0,0,0,0,0,0,0,0,0,0,0,0],"id":73,"left_children":[1,3,5,7,9,11,13,-1,-1,-1,-1,-1,-1,-1,-1],"loss_changes":[1.4955759E0,1.7507949E0,1.7220922E0,1.8824555E0,4.4638596E0,2.1581795E0,1.6295693E0,0E0,0E0,0E0,0E0,0E0,0E0,0E0,0E0],"parents":[2147483647,0,0,1,1,2,2,3,3,4,4,5,5,6,6],"right_children":[2,4,6,8,10,12,14,-1,-1,-1,-1,-1,-1,-1,-1],"split_conditions":[4E0,2E0,7E0,1.61E1,1E0,1E0,1.607E1,1.4111686E-3,-5.8183135E-3,-6.2032968E-2,1.1449489E-2,6.605694E-2,-6.418089E-2,-3.2492194E-3,1.2189805E-1],"split_indices":[24,17,14,1,32,28,1,0,0,0,0,0,0,0,0],"split_type":[0,0,0,0,0,0,0,0,0,0,0,0,0,0,0],"sum_hessian":[1.9331245E3,1.9262429E3,6.881563E0,1.8946482E3,3.1594751E1,3.2183266E0,3.6632364E0,1.4122883E3,4.8235992E2,1.4794436E1,1.6800316E1,1.2336378E0,1.9846888E0,1.4675575E0,2.1956787E0],"tree_param":{"num_deleted":"0","num_feature":"34","num_nodes":"15","size_leaf_vector":"1"}},{"base_weights":[-1.245483E-3,2.1192322E-3,-2.6793182E-1,-1.8518748E-2,3.930585E-2,-6.3067037E-1,2.08673E-2,7.1022213E-3,-5.625464E-3,1.8105445E-2,2.1642249E-4,6.5898523E-3,-1.13003805E-1,-4.7734525E-2,7.360813E-2],"categories":[],"categories_nodes":[],"categories_segments":[],"categories_sizes":[],"default_left":[0,0,0,0,0,0,0,0,0,0,0,0,0,0,0],"id":74,"left_children":[1,3,5,7,9,11,13,-1,-1,-1,-1,-1,-1,-1,-1],"loss_changes":[1.7495333E0,1.478695E0,2.5580244E0,4.1909633E0,3.6199331E0,3.83116E0,5.5155354E0,0E0,0E0,0E0,0E0,0E0,0E0,0E0,0E0],"parents":[2147483647,0,0,1,1,2,2,3,3,4,4,5,5,6,6],"right_children":[2,4,6,8,10,12,14,-1,-1,-1,-1,-1,-1,-1,-1],"split_conditions":[2E0,1E1,1.2E1,1E0,1.604E1,1E0,1E0,7.1022213E-3,-5.625464E-3,1.8105445E-2,2.1642249E-4,6.5898523E-3,-1.13003805E-1,-4.7734525E-2,7.360813E-2],"split_indices":[33,11,8,22,1,0,0,0,0,0,0,0,0,0,0],"split_type":[0,0,0,0,0,0,0,0,0,0,0,0,0,0,0],"sum_hessian":[1.9480914E3,1.9247987E3,2.3292656E1,1.2381482E3,6.866505E2,9.799934E0,1.3492721E1,3.6683295E2,8.713153E2,1.4175957E2,5.448909E2,4.45445E0,5.3454847E0,8.148868E0,5.3438535E0],"tree_param":{"num_deleted":"0","num_feature":"34","num_nodes":"15","size_leaf_vector":"1"}},{"base_weights":[-6.669702E-3,-5.045186E-3,-5.981925E-1,-6.5162615E-3,1.1702019E-1,3.0362805E-2,-9.360474E-1,-3.6281224E-3,2.3720297E-3,-1.13062344E-1,-3.29321E-2],"categories":[],"categories_nodes":[],"categories_segments":[],"categories_sizes":[],"default_left":[0,0,0,0,0,0,0,0,0,0,0],"id":75,"left_children":[1,3,5,7,-1,-1,9,-1,-1,-1,-1],"loss_changes":[1.8746189E0,3.3782766E0,1.9121454E0,1.7541995E0,0E0,0E0,1.15437746E-1,0E0,0E0,0E0,0E0],"parents":[2147483647,0,0,1,1,2,2,3,3,6,6],"right_children":[2,4,6,8,-1,-1,10,-1,-1,-1,-1],"split_conditions":[2.4E0,4E0,1.1E1,8E-1,1.1702019E-1,3.0362805E-2,1.607E1,-3.6281224E-3,2.3720297E-3,-1.13062344E-1,-3.29321E-2],"split_indices":[6,31,2,7,0,0,1,0,0,0,0],"split_type":[0,0,0,0,0,0,0,0,0,0,0],"sum_hessian":[1.9529619E3,1.9486189E3,4.3430195E0,1.947176E3,1.4428557E0,1.2112342E0,3.1317854E0,9.811394E2,9.660366E2,1.7175033E0,1.414282E0],"tree_param":{"num_deleted":"0","num_feature":"34","num_nodes":"11","size_leaf_vector":"1"}},{"base_weights":[1.2594102E-3,-2.2120336E-2,4.0559713E-2,-1.2399912E-1,1.9493077E-2,-5.11558E-2,9.122557E-2,-4.725198E-3,-2.7581055E-2,5.735559E-3,-6.5580728E-3,-9.850381E-3,3.7013456E-2,1.2477616E-2,-1.9472048E-2],"categories":[],"categories_nodes":[],"categories_segments":[],"categories_sizes":[],"default_left":[0,0,0,0,0,0,0,0,0,0,0,0,0,0,0],"id":76,"left_children":[1,3,5,7,9,11,13,-1,-1,-1,-1,-1,-1,-1,-1],"loss_changes":[1.7960654E0,5.198577E0,3.392706E0,4.129854E0,2.809564E0,5.2245417E0,4.5334606E0,0E0,0E0,0E0,0E0,0E0,0E0,0E0,0E0],"parents":[2147483647,0,0,1,1,2,2,3,3,4,4,5,5,6,6],"right_children":[2,4,6,8,10,12,14,-1,-1,-1,-1,-1,-1,-1,-1],"split_conditions":[2E0,9E0,1E0,1.3E1,9E0,2E0,3E0,-4.725198E-3,-2.7581055E-2,5.735559E-3,-6.5580728E-3,-9.850381E-3,3.7013456E-2,1.2477616E-2,-1.9472048E-2],"split_indices":[30,11,20,2,5,19,30,0,0,0,0,0,0,0,0],"split_type":[0,0,0,0,0,0,0,0,0,0,0,0,0,0,0],"sum_hessian":[1.9527522E3,1.224647E3,7.281052E2,3.5457925E2,8.700677E2,2.5909E2,4.6901526E2,2.3638687E2,1.1819238E2,6.023256E2,2.677421E2,2.336021E2,2.5487898E1,4.2026807E2,4.8747196E1],"tree_param":{"num_deleted":"0","num_feature":"34","num_nodes":"15","size_leaf_vector":"1"}},{"base_weights":[-3.8888883E-3,-3.1201588E-2,3.2256532E-2,-5.393147E-2,1.1127287E-1,9.00343E-2,-3.2913778E-2,-1.5291314E-3,-1.904318E-2,-1.3397968E-2,2.8307814E-2,2.0930355E-3,2.6358439E-2,-9.263574E-3,1.0985767E-2],"categories":[],"categories_nodes":[],"categories_segments":[],"categories_sizes":[],"default_left":[0,0,0,0,0,0,0,0,0,0,0,0,0,0,0],"id":77,"left_children":[1,3,5,7,9,11,13,-1,-1,-1,-1,-1,-1,-1,-1],"loss_changes":[1.9332285E0,3.6179147E0,3.1767704E0,5.073949E0,6.5175805E0,5.3559766E0,3.3938355E0,0E0,0E0,0E0,0E0,0E0,0E0,0E0,0E0],"parents":[2147483647,0,0,1,1,2,2,3,3,4,4,5,5,6,6],"right_children":[2,4,6,8,10,12,14,-1,-1,-1,-1,-1,-1,-1,-1],"split_conditions":[1E0,1E1,6.324555E-1,9E0,1E0,2E0,1E1,-1.5291314E-3,-1.904318E-2,-1.3397968E-2,2.8307814E-2,2.0930355E-3,2.6358439E-2,-9.263574E-3,1.0985767E-2],"split_indices":[19,5,16,5,20,30,11,0,0,0,0,0,0,0,0],"split_type":[0,0,0,0,0,0,0,0,0,0,0,0,0,0,0],"sum_hessian":[1.9562175E3,1.1143295E3,8.418881E2,9.615487E2,1.5278069E2,4.460521E2,3.9583606E2,7.502749E2,2.1127385E2,6.3028076E1,8.975261E1,3.1982513E2,1.2622696E2,2.7933856E2,1.1649749E2],"tree_param":{"num_deleted":"0","num_feature":"34","num_nodes":"15","size_leaf_vector":"1"}},{"base_weights":[-6.380156E-3,-1.4006875E-2,1.0539713E-1,4.2195067E-1,-1.6103208E-2,1.4942284E-1,-2.9521632E-1,-7.534524E-2,9.824912E-2,-6.07362E-4,-1.0479702E-2,2.2357825E-2,-1.8127147E-2,1.2341357E-2,-5.303358E-2],"categories":[],"categories_nodes":[],"categories_segments":[],"categories_sizes":[],"default_left":[0,0,0,0,0,0,0,0,0,0,0,0,0,0,0],"id":78,"left_children":[1,3,5,7,9,11,13,-1,-1,-1,-1,-1,-1,-1,-1],"loss_changes":[1.6798954E0,1.6920123E0,2.264173E0,6.57852E0,1.6326886E0,2.8379328E0,1.3252618E0,0E0,0E0,0E0,0E0,0E0,0E0,0E0,0E0],"parents":[2147483647,0,0,1,1,2,2,3,3,4,4,5,5,6,6],"right_children":[2,4,6,8,10,12,14,-1,-1,-1,-1,-1,-1,-1,-1],"split_conditions":[1.3E1,1E1,3E0,6.324555E-1,8.944272E-1,3E0,2E0,-7.534524E-2,9.824912E-2,-6.07362E-4,-1.0479702E-2,2.2357825E-2,-1.8127147E-2,1.2341357E-2,-5.303358E-2],"split_indices":[8,2,24,16,16,30,30,0,0,0,0,0,0,0,0],"split_type":[0,0,0,0,0,0,0,0,0,0,0,0,0,0,0],"sum_hessian":[1.967834E3,1.8429609E3,1.248731E2,7.8611407E0,1.8350997E3,1.13073784E2,1.1799314E1,2.427254E0,5.4338865E0,1.6496267E3,1.8547302E2,9.26269E1,2.0446886E1,4.4144654E0,7.384848E0],"tree_param":{"num_deleted":"0","num_feature":"34","num_nodes":"15","size_leaf_vector":"1"}},{"base_weights":[1.18480725E-2,1.7765943E-2,-1.2379496E-1,-6.014062E-3,5.581928E-2,-4.553149E-1,3.8941973E-4,1.4253049E-3,-1.7337495E-2,-3.4302964E-3,1.0291771E-2,-8.421932E-2,1.8078693E-3,1.8665811E-2,-4.567355E-2],"categories":[],"categories_nodes":[],"categories_segments":[],"categories_sizes":[],"default_left":[0,0,0,0,0,0,0,0,0,0,0,0,0,0,0],"id":79,"left_children":[1,3,5,7,9,11,13,-1,-1,-1,-1,-1,-1,-1,-1],"loss_changes":[1.562602E0,1.6866422E0,3.350933E0,3.895516E0,3.0459454E0,4.0774455E0,5.2119174E0,0E0,0E0,0E0,0E0,0E0,0E0,0E0,0E0],"parents":[2147483647,0,0,1,1,2,2,3,3,4,4,5,5,6,6],"right_children":[2,4,6,8,10,12,14,-1,-1,-1,-1,-1,-1,-1,-1],"split_conditions":[8.944272E-1,7.483315E-1,1.604E1,8.944272E-1,7.483315E-1,1E0,1E1,1.4253049E-3,-1.7337495E-2,-3.4302964E-3,1.0291771E-2,-8.421932E-2,1.8078693E-3,1.8665811E-2,-4.567355E-2],"split_indices":[4,16,1,13,4,0,11,0,0,0,0,0,0,0,0],"split_type":[0,0,0,0,0,0,0,0,0,0,0,0,0,0,0],"sum_hessian":[1.9428995E3,1.8625105E3,8.038908E1,1.1467402E3,7.157703E2,2.1180262E1,5.9208817E1,1.0236882E3,1.2305202E2,2.4576802E2,4.700023E2,1.1226452E1,9.95381E0,4.2487663E1,1.6721151E1],"tree_param":{"num_deleted":"0","num_feature":"34","num_nodes":"15","size_leaf_vector":"1"}},{"base_weights":[7.957482E-4,7.5544207E-3,-1.9302541E-1,-1.4066018E-1,1.4816532E-2,-8.463973E-2,-7.173622E-1,-2.48721E-2,1.2877037E-2,7.0314895E-4,1.688328E-2,1.480969E-3,-5.876119E-2,2.8688004E-2,-9.668481E-2],"categories":[],"categories_nodes":[],"categories_segments":[],"categories_sizes":[],"default_left":[0,0,0,0,0,0,0,0,0,0,0,0,0,0,0],"id":80,"left_children":[1,3,5,7,9,11,13,-1,-1,-1,-1,-1,-1,-1,-1],"loss_changes":[2.550998E0,2.0273836E0,3.6683905E0,2.5936708E0,2.1506405E0,2.7853959E0,3.0600696E0,0E0,0E0,0E0,0E0,0E0,0E0,0E0,0E0],"parents":[2147483647,0,0,1,1,2,2,3,3,4,4,5,5,6,6],"right_children":[2,4,6,8,10,12,14,-1,-1,-1,-1,-1,-1,-1,-1],"split_conditions":[3E0,7E0,1E0,2.6E0,1.3E1,8E-1,1E0,-2.48721E-2,1.2877037E-2,7.0314895E-4,1.688328E-2,1.480969E-3,-5.876119E-2,2.8688004E-2,-9.668481E-2],"split_indices":[30,11,29,3,8,4,23,0,0,0,0,0,0,0,0],"split_type":[0,0,0,0,0,0,0,0,0,0,0,0,0,0,0],"sum_hessian":[1.9452526E3,1.8806346E3,6.461796E1,8.698396E1,1.7936506E3,5.4511337E1,1.0106618E1,6.2138763E1,2.4845198E1,1.7083448E3,8.530586E1,4.632279E1,8.188548E0,1.9813424E0,8.125276E0],"tree_param":{"num_deleted":"0","num_feature":"34","num_nodes":"15","size_leaf_vector":"1"}},{"base_weights":[6.204663E-3,-2.350628E-2,3.519199E-2,-3.3235952E-2,6.588492E-1,3.3267832E-1,2.1283071E-2,2.3962365E-2,-4.4958848E-3,9.831122E-2,1.05255125E-2,-5.5121876E-2,5.1911872E-2,4.227148E-3,-2.6987746E-2],"categories":[],"categories_nodes":[],"categories_segments":[],"categories_sizes":[],"default_left":[0,0,0,0,0,0,0,0,0,0,0,0,0,0,0],"id":81,"left_children":[1,3,5,7,9,11,13,-1,-1,-1,-1,-1,-1,-1,-1],"loss_changes":[1.6786203E0,6.413005E0,4.074625E0,3.0497522E0,2.3345203E0,7.536016E0,5.7769513E0,0E0,0E0,0E0,0E0,0E0,0E0,0E0,0E0],"parents":[2147483647,0,0,1,1,2,2,3,3,4,4,5,5,6,6],"right_children":[2,4,6,8,10,12,14,-1,-1,-1,-1,-1,-1,-1,-1],"split_conditions":[2E0,9.797959E-1,7E0,1.602E1,1E0,8E0,9.797959E-1,2.3962365E-2,-4.4958848E-3,9.831122E-2,1.05255125E-2,-5.5121876E-2,5.1911872E-2,4.227148E-3,-2.6987746E-2],"split_indices":[31,10,5,1,23,11,16,0,0,0,0,0,0,0,0],"split_type":[0,0,0,0,0,0,0,0,0,0,0,0,0,0,0],"sum_hessian":[1.9471113E3,9.6164734E2,9.854639E2,9.490659E2,1.2581392E1,4.299349E1,9.4247046E2,3.8294334E1,9.107716E2,7.444794E0,5.136598E0,7.1481614E0,3.584533E1,8.798976E2,6.2572887E1],"tree_param":{"num_deleted":"0","num_feature":"34","num_nodes":"15","size_leaf_vector":"1"}},